lstm/lstm_cell/kernel:0
(1, 320)
[[ 8.76720622e-02  3.76204103e-02  1.38158873e-01 -1.34499207e-01
   1.89830840e-01  1.66499779e-01  4.22514230e-02  1.58620715e-01
   7.27493912e-02 -3.80424224e-02 -2.69301105e-02  6.83763847e-02
  -3.89165618e-02 -1.03414066e-01  1.75639451e-01  3.22352529e-01
  -7.81816337e-03  2.74692699e-02  1.03837542e-01  3.19968790e-01
   1.04730964e-01  2.29995120e-02  1.21766835e-01  2.99330186e-02
   8.89765620e-02 -1.40926661e-02  1.68634027e-01  4.66897413e-02
  -6.04059547e-02  7.94988498e-02  1.38590246e-01  1.74714364e-02
  -8.02804381e-02 -1.02331154e-01  9.23970193e-02 -2.70597097e-02
   2.54944693e-02  8.20912793e-02  4.64936234e-02  5.72547764e-02
   1.65290236e-01  1.97707489e-02 -3.64091508e-02  1.13284007e-01
   1.11653842e-01 -8.99494886e-02 -3.81085128e-02  8.57211426e-02
   1.43721784e-02  9.43149850e-02 -5.64074740e-02  8.21147040e-02
   2.46267915e-02 -3.40062077e-03  2.53616005e-01 -8.60774666e-02
  -1.23613335e-01  1.64405197e-01  5.70429713e-02  2.66466150e-03
  -1.71412267e-02  2.73942590e-01  1.42588601e-01 -3.52310501e-02
   9.31503922e-02  1.48571983e-01 -2.78635835e-03  8.62979442e-02
  -8.35995562e-03 -8.56595710e-02  1.08850613e-01  8.78422409e-02
   1.42009258e-01  1.22499749e-01  1.46259978e-01 -4.49489281e-02
  -1.47884771e-01  7.62902796e-02  2.96409838e-02 -1.38490945e-01
  -2.42689135e-03  8.00924525e-02  1.30849138e-01 -5.32987304e-02
   6.66160043e-03 -2.36615748e-03  1.00316383e-01  4.15951349e-02
   9.16534141e-02  1.42844394e-01 -3.56302038e-02  1.29491121e-01
   2.16791425e-02  5.84353022e-02  5.79897091e-02  1.02178693e-01
  -9.38596129e-02  1.11432917e-01 -7.95240179e-02 -1.14930451e-01
  -6.36558384e-02  4.24514115e-02  4.99046408e-02  1.48779333e-01
   8.25759675e-03 -7.95170665e-03 -1.08899362e-01 -1.91477779e-02
  -1.05707056e-03  7.85076898e-03  8.41212571e-02  1.83378439e-02
   8.34605172e-02 -8.88126343e-02  2.48471536e-02  3.79423276e-02
   1.27419606e-01 -1.49844121e-02  1.82847232e-02  1.01974532e-02
   1.45656690e-02  5.44232354e-02  8.76645148e-02 -1.00174576e-01
   1.55640328e-02 -3.92445885e-02  9.00134295e-02  9.82478559e-02
  -1.20864801e-01  4.98070940e-02  2.69439723e-02  1.38984635e-01
  -8.17062184e-02 -1.02040209e-01  5.60218021e-02  1.29340246e-01
   2.53029075e-02 -4.76322100e-02  7.66447261e-02  1.00236982e-01
  -1.12335511e-01 -1.37306213e-01  5.40913902e-02 -7.72961741e-03
  -3.91841792e-02  2.50393525e-02  7.47627616e-02 -3.43739726e-02
  -1.62314251e-02 -1.21813230e-01  1.16098173e-01  4.05141115e-02
   2.70521604e-02  9.02331397e-02 -7.22679868e-02  2.69071050e-02
  -2.03174129e-02  9.21273530e-02  2.42621382e-03 -1.63116693e-01
  -1.00529611e-01 -1.03800811e-01  9.16019678e-02 -5.07668667e-02
  -1.38199106e-01  1.23792283e-01  5.73772192e-02 -6.72310889e-02
   5.29063269e-02  1.42135099e-01 -6.16302975e-02 -7.82567859e-02
  -4.88505512e-02  3.09883766e-02  1.12420857e-01  1.32104740e-01
   1.39050916e-01 -5.46422228e-02  1.00160457e-01  1.65958449e-01
   7.06922039e-02  9.80156809e-02  1.27703920e-01 -1.31577983e-01
   1.33338407e-01 -8.64980519e-02 -1.13263883e-01 -7.39530027e-02
   1.30941376e-01 -1.09174758e-01 -6.77547753e-02  3.20390798e-03
   3.40694487e-02 -3.72215956e-02  1.75951511e-01 -6.46600202e-02
  -7.88069293e-02  9.90041271e-02  9.41955969e-02  7.75132775e-02
   5.03141470e-02  9.95076522e-02  9.74031240e-02  1.25541598e-01
  -1.00166589e-01  2.93979179e-02  7.88614303e-02  1.27128482e-01
  -3.16565335e-02  9.97801125e-02 -9.75712761e-02 -3.98389362e-02
  -1.10398188e-01  1.11198515e-01 -1.11849569e-01 -3.08282506e-02
   1.03301834e-02 -9.89236385e-02 -1.09382980e-01  1.05509110e-01
   1.45616919e-01 -1.54251546e-01 -1.31793797e-01 -3.53307389e-02
   5.99371232e-02 -1.21261604e-01  1.16805648e-02  1.24799721e-01
  -1.37994558e-01 -4.46151122e-02 -4.98125032e-02 -4.36451100e-02
   6.43497109e-02 -1.55972168e-01 -1.35819197e-01 -3.32450494e-02
  -6.96125999e-02  1.25556707e-01 -1.37360707e-01  3.56831402e-02
   9.23663452e-02  8.43408704e-02  8.66423026e-02  9.15504545e-02
   1.52735725e-01  1.42510191e-01  1.22408099e-01  1.09772444e-01
   9.41929966e-02  1.92421392e-01  1.17403366e-01 -1.26590217e-02
   7.13337511e-02  1.05749823e-01  1.50459539e-02  1.90959588e-01
  -2.25802977e-02  1.03189394e-01  1.72391757e-01  1.84352517e-01
  -1.76226906e-02  3.33515778e-02  9.21648443e-02  1.07171692e-01
   1.50592953e-01  2.84214895e-02  1.29336908e-01  6.93326965e-02
   7.91763421e-03  6.72500804e-02 -2.11424790e-02  3.19202095e-02
   2.82842070e-02  1.11339137e-01  3.33666086e-01  1.00863799e-01
   1.57026634e-01 -7.58601427e-02  6.76592961e-02  9.11396146e-02
   2.21331283e-01  9.21628234e-05  2.52398234e-02  1.68529630e-01
   2.11436272e-01 -5.79708032e-02  3.29510346e-02  1.11082651e-01
  -8.85931179e-02  1.19245805e-01  3.61301564e-02 -3.69204320e-02
   2.82591015e-01 -1.92460418e-02  2.63907164e-01  6.05791472e-02
   5.01781851e-02 -6.44800738e-02  1.68501005e-01 -3.50701101e-02
  -9.80768912e-03  3.50933582e-01  1.74410939e-01  1.30061373e-01
  -4.35279869e-02 -9.36111584e-02 -3.67325880e-02 -7.69324154e-02
   3.49550284e-02 -1.98058020e-02  2.85492651e-02 -1.34412393e-01
   8.19556415e-02  1.17120326e-01  8.15598518e-02 -6.25678897e-02
  -8.61364231e-02  1.99870095e-01  1.15317635e-01 -6.20418005e-02]]
lstm/lstm_cell/recurrent_kernel:0
(80, 320)
[[-1.14774510e-01 -2.62108110e-02 -1.11438585e-02 ... -1.19810201e-01
   4.92682718e-02 -8.08596984e-02]
 [-7.96504989e-02  1.21989707e-02  8.17377940e-02 ... -6.86268732e-02
  -1.08299226e-01  1.77207794e-02]
 [-3.18439379e-02  6.27754889e-06 -4.63118590e-02 ...  3.10377609e-02
   9.07266513e-02 -4.25247177e-02]
 ...
 [ 2.07716469e-02  1.29460869e-02  7.24810138e-02 ...  1.02379210e-01
   1.20932333e-01  2.52782293e-02]
 [-1.52867858e-03 -9.52791423e-02 -3.09727602e-02 ... -9.23271626e-02
   1.50515176e-02 -1.32389795e-02]
 [ 1.53726852e-02  1.15375020e-01  7.81860724e-02 ...  8.74110386e-02
  -2.57954784e-02  5.44768050e-02]]
lstm/lstm_cell/bias:0
(320,)
[-1.14890467e-02  2.25319602e-02  4.95969830e-03 -4.02744934e-02
  5.74804470e-02  8.86610895e-03 -2.13568602e-02  3.01048090e-03
 -6.86888862e-03  3.17844674e-02 -1.33190108e-02  3.46636330e-03
  2.77065728e-02 -2.21841526e-03  8.86901934e-03  1.34006262e-01
  1.02403825e-02  7.79424561e-04  4.98265540e-03  1.71785668e-01
 -1.43536264e-02  4.60857805e-03 -1.85875804e-03 -1.58848427e-03
  1.09772123e-02  5.00454148e-03  7.98707362e-03 -9.98726930e-04
  1.28062908e-03  1.34313116e-02 -6.63347542e-04 -9.07752384e-03
 -1.49134435e-02 -6.45513926e-03  1.03646494e-01  9.55199543e-03
 -1.52222104e-02 -1.31536380e-03  2.95073781e-02  3.41159757e-03
 -9.10178106e-03  1.84563547e-02  1.94098968e-02 -1.37184812e-02
  2.34247483e-02 -1.71795804e-02  7.55408034e-03 -2.91488087e-03
 -2.53178421e-02  2.85844784e-02 -5.31490333e-03  7.57149654e-04
  4.18797433e-02  8.32301658e-03  5.25388420e-02 -1.98102072e-02
 -6.82655955e-03  2.56450905e-04 -3.36664822e-03  1.44236779e-03
  4.87351865e-02  1.69185922e-01  5.73804649e-03 -3.02862525e-02
 -9.04318690e-03 -2.99694436e-03 -3.31578478e-02  8.67188792e-04
  2.98633729e-03 -1.10697867e-02  2.83220026e-04 -1.62433870e-02
 -1.45341759e-03  1.01754807e-01  1.62019823e-02  2.82576564e-03
 -2.67885011e-02  7.06612617e-02  1.00936972e-01 -3.66831645e-02
  9.86701131e-01  9.51929033e-01  9.91402626e-01  9.12413657e-01
  9.71205175e-01  9.89459991e-01  9.45480108e-01  9.80745077e-01
  9.84855235e-01  9.64318335e-01  9.82509434e-01  9.82050478e-01
  9.68534112e-01  9.96913612e-01  9.36484098e-01  8.76350880e-01
  9.82067823e-01  9.76313293e-01  9.87847865e-01  8.92599821e-01
  9.72092569e-01  9.32800472e-01  9.76149380e-01  9.83184218e-01
  9.85238373e-01  9.81478333e-01  9.86055315e-01  9.83550668e-01
  9.88693833e-01  9.77671087e-01  9.90584195e-01  9.88230169e-01
  9.85183179e-01  9.82815504e-01  9.53714192e-01  9.61743057e-01
  9.38280642e-01  9.85502899e-01  9.43659961e-01  9.89819407e-01
  9.37755048e-01  9.83892143e-01  9.67903554e-01  9.65394199e-01
  9.70317245e-01  9.47791994e-01  9.70021188e-01  9.84077811e-01
  9.60474432e-01  9.63284552e-01  9.59377468e-01  9.91904616e-01
  9.05051112e-01  9.87702668e-01  9.36106145e-01  9.63399053e-01
  9.91862416e-01  9.81705308e-01  9.75830197e-01  9.85892892e-01
  9.71887946e-01  9.02948439e-01  9.89520252e-01  9.24143314e-01
  9.82855797e-01  9.93237674e-01  9.69293952e-01  9.87925291e-01
  9.75680053e-01  9.77452338e-01  9.75110888e-01  9.81820762e-01
  9.77703333e-01  9.56269026e-01  9.73797917e-01  9.98669982e-01
  9.50108171e-01  9.43656385e-01  9.45746005e-01  9.44788873e-01
  2.56847180e-02  3.08469199e-02 -2.17025094e-02  1.62968989e-02
  3.05467714e-02 -2.60413773e-02 -1.58638339e-02  1.82359163e-02
 -1.38932485e-02 -3.12279165e-02  2.13839710e-02  1.62021928e-02
  7.43138511e-03 -8.92948732e-03 -1.99570246e-02 -3.21852155e-02
 -2.84472331e-02  1.72089338e-02 -2.22247802e-02 -4.03783470e-02
 -1.98209975e-02 -2.19457317e-02 -3.32938731e-02  3.04474737e-02
 -2.74640508e-02  2.26365738e-02  2.39872243e-02  1.85281243e-02
 -2.13101655e-02  2.57090237e-02  1.43383862e-02 -2.17614882e-03
 -7.89973140e-03  1.10494765e-02 -4.05714028e-02  1.48096057e-02
  1.72902569e-02 -2.21309736e-02 -2.23646704e-02 -1.68343503e-02
 -3.43858544e-03 -2.12161075e-02 -2.40879972e-02 -3.17182690e-02
  2.49254052e-02 -8.52716528e-03 -2.09049284e-02 -3.26660573e-02
  1.42189115e-02 -2.32210569e-02  2.70898771e-02  6.23201206e-03
  2.12694220e-02 -3.06415111e-02  3.14564593e-02  5.00004459e-03
 -3.27032199e-03  2.36545522e-02  2.41806880e-02 -2.66346000e-02
 -3.45765017e-02  3.85485403e-02  2.96199434e-02  9.13519412e-03
 -8.81297234e-03  2.18438022e-02 -2.09397892e-03 -2.82237865e-02
  3.08452137e-02  1.32539524e-02  1.63735710e-02  1.04698744e-02
 -1.60510279e-02  3.80331427e-02  2.69690938e-02  8.28088727e-03
  2.42375955e-02 -2.70416737e-02  3.14065441e-02 -1.14494627e-02
 -1.14104822e-02  1.95611231e-02  4.93175304e-03 -4.34463583e-02
  5.62081486e-02  8.57026409e-03 -2.59234775e-02  2.84714974e-03
 -7.08277384e-03  2.55853776e-02 -1.36174569e-02  4.80288500e-03
  2.43332088e-02 -3.02067818e-03  1.39493020e-02  1.32464021e-01
  1.06866071e-02 -1.14609173e-03  2.98552006e-03  1.73466548e-01
 -1.31636132e-02  4.03159810e-03 -1.57433911e-03 -3.26825166e-03
  8.69128574e-03  4.51198546e-03  8.08074046e-03 -1.39391830e-03
  8.44349677e-04  1.32408012e-02  7.89587270e-04 -8.95272847e-03
 -1.45731876e-02 -8.20266735e-03  8.49745497e-02  9.24170297e-03
 -2.06986777e-02  6.73940114e-04  2.90369820e-02  2.87663424e-03
 -1.42544378e-02  1.89854112e-02  1.78154372e-02 -1.53120952e-02
  1.93496104e-02 -1.64397042e-02  6.73786271e-03 -3.64732649e-03
 -2.32812036e-02  2.62817405e-02 -6.24924665e-03  1.94005482e-03
  2.67147608e-02  8.63396190e-03  4.53871638e-02 -2.11537257e-02
 -7.56712863e-03  4.58742678e-03 -6.21791417e-03  2.37636617e-03
  4.76300195e-02  1.60947055e-01  4.19234205e-03 -3.39331850e-02
 -8.39642715e-03 -7.32972258e-05 -3.27096134e-02  3.91129078e-03
  2.18198914e-03 -1.06125064e-02  1.26771233e-03 -1.76947825e-02
 -6.02804881e-04  9.99304727e-02  1.64743811e-02  2.91348039e-03
 -2.66555231e-02  6.14341311e-02  9.80653539e-02 -3.65243889e-02]
lstm_1/lstm_cell_1/kernel:0
(80, 400)
[[-0.09394129 -0.08244222  0.00155157 ... -0.09488545 -0.08621475
   0.01833209]
 [-0.10619339  0.05633929 -0.05258902 ... -0.06120323 -0.02585935
   0.09632528]
 [-0.0804199  -0.08156639 -0.01756348 ...  0.01196466  0.05314872
   0.01424442]
 ...
 [-0.07784601 -0.07448153 -0.06196594 ...  0.04406713  0.1038511
   0.12837186]
 [-0.1313788  -0.15939382 -0.05673365 ... -0.0984466  -0.03881416
  -0.03758038]
 [ 0.00622515 -0.01908061  0.07616697 ...  0.00224584  0.10134858
  -0.06449825]]
lstm_1/lstm_cell_1/recurrent_kernel:0
(100, 400)
[[-0.03631877  0.00280858  0.07887033 ... -0.04974377  0.02989298
  -0.01342935]
 [-0.06845298 -0.02813022 -0.00730549 ...  0.03954548 -0.04628842
  -0.04471653]
 [ 0.04602583 -0.01092785  0.06303041 ... -0.11411846  0.02569476
   0.07919592]
 ...
 [-0.07837199  0.1511036   0.01341464 ...  0.02288166 -0.04891184
   0.06222223]
 [ 0.02189895  0.09523875  0.05661415 ... -0.02549024  0.10549013
   0.02511061]
 [ 0.05251047 -0.02015158  0.00716659 ... -0.04224983 -0.03599734
  -0.00193336]]
lstm_1/lstm_cell_1/bias:0
(400,)
[-7.60027673e-03 -1.06967743e-02 -3.99188250e-02 -7.47968256e-03
  3.75368935e-03 -7.04699778e-06 -1.94438323e-02  2.03491580e-02
 -9.80382133e-03 -4.30962956e-03 -1.20263817e-02 -7.35102268e-03
 -1.18231103e-02 -1.19961146e-02 -3.64148431e-02 -1.79092977e-02
 -1.69322547e-02 -5.41976020e-02 -3.45223695e-02 -1.38852689e-02
 -1.79697387e-02 -2.79328004e-02 -7.83479121e-03 -2.70349476e-02
 -5.21223098e-02 -1.20837372e-02 -2.37541627e-02 -9.50817298e-03
 -7.63876224e-03 -2.43108179e-02 -8.77853017e-03 -2.23891567e-02
 -1.66540835e-02 -2.03365157e-03 -1.22784702e-02 -2.23244410e-02
 -2.26917211e-02 -2.32375488e-02 -3.83923575e-02 -2.79492829e-02
 -2.01279167e-02 -1.08360117e-02 -4.65630041e-03 -3.93904857e-02
 -4.92262244e-02 -1.84511561e-02 -5.14738401e-03 -2.18586177e-02
 -3.84502076e-02 -1.44845843e-02 -2.13360060e-02 -2.36028805e-02
 -3.06378934e-03 -1.28146354e-02 -2.95696929e-02 -3.02342363e-02
 -4.92613055e-02 -5.17246686e-03 -1.89118378e-04 -2.96980310e-02
 -2.67545599e-03 -4.96905670e-02 -7.46962754e-03 -9.03241243e-03
 -3.47047411e-02 -1.65961999e-02 -1.55801643e-02 -1.21774590e-02
 -8.31042416e-03 -6.56159641e-03 -1.11369006e-02 -6.62602775e-04
 -3.47704142e-02 -1.09868974e-03 -1.30131608e-02 -2.07674373e-02
 -1.05511397e-02 -2.33588330e-02  2.04679929e-03 -2.53394842e-02
 -2.71544214e-02 -4.58624819e-03 -6.04104856e-03 -1.00580920e-02
 -1.03345038e-02 -1.03876926e-02 -6.57863729e-03 -3.44667472e-02
 -3.70016731e-02 -2.36221608e-02 -3.76595417e-03 -3.93472277e-02
 -2.48926915e-02 -8.25720374e-03 -9.97110549e-03 -6.13528863e-03
  1.65225230e-02 -1.77746844e-02 -4.71772067e-02 -1.46659277e-02
  9.81423318e-01  9.78651226e-01  9.69606280e-01  9.86960709e-01
  9.99529004e-01  1.00198901e+00  9.32273746e-01  9.62235928e-01
  9.89488900e-01  9.97200191e-01  9.49641526e-01  9.93000448e-01
  9.83234406e-01  9.84638691e-01  9.69867826e-01  9.85259056e-01
  9.78187740e-01  9.35525775e-01  9.40711796e-01  9.87988770e-01
  9.90107298e-01  9.36581194e-01  9.96330380e-01  9.73931551e-01
  9.13484216e-01  9.20312941e-01  9.75213528e-01  9.82263744e-01
  9.89325583e-01  9.74730849e-01  9.69566226e-01  9.52195406e-01
  9.82133567e-01  9.97857273e-01  9.90617812e-01  9.75601494e-01
  9.76336718e-01  9.64870453e-01  9.38155890e-01  9.38343942e-01
  9.60889041e-01  9.90274727e-01  9.96216476e-01  9.28280473e-01
  9.33915198e-01  9.84223127e-01  9.96266544e-01  9.77215827e-01
  9.56887484e-01  9.70783055e-01  9.82221544e-01  9.73514855e-01
  9.55675125e-01  9.71195400e-01  9.66954291e-01  9.58753169e-01
  9.00684655e-01  9.97706294e-01  1.00482178e+00  9.58755076e-01
  9.93423283e-01  9.49250221e-01  9.91895258e-01  9.43706870e-01
  9.75567341e-01  9.77203846e-01  9.78395641e-01  9.83381331e-01
  9.93076146e-01  9.92413580e-01  9.85699177e-01  9.93698299e-01
  9.66648161e-01  9.99291897e-01  9.71972883e-01  9.79740322e-01
  9.90941465e-01  9.75142479e-01  9.92785156e-01  9.67518508e-01
  9.58774745e-01  9.97952163e-01  9.95226562e-01  9.90835071e-01
  9.48277116e-01  9.88090754e-01  9.86377299e-01  9.48694646e-01
  9.43443418e-01  9.72381175e-01  9.98167872e-01  9.44975555e-01
  9.76246595e-01  9.95125115e-01  9.84131455e-01  9.93705809e-01
  1.00972795e+00  9.85581636e-01  9.38331902e-01  9.87804651e-01
 -8.45733564e-03  6.01592893e-03  1.44744210e-03 -1.22944079e-02
 -1.41487094e-02  1.23857232e-02 -9.68275778e-03 -1.40604926e-02
 -9.48152132e-03 -5.07252896e-03 -1.01088993e-02  8.45251791e-03
  5.33816870e-03 -4.23501898e-03 -9.64296237e-03 -6.97434647e-03
  9.71625093e-03 -9.62935481e-03 -1.46556590e-02 -6.56098407e-03
  7.94303603e-03 -1.03269061e-02 -1.31389089e-02  9.81270149e-03
  1.62282437e-02  1.75614376e-02  7.27132382e-03 -1.36916256e-02
  9.94960312e-03  6.53710961e-03 -1.46809882e-02  6.16789563e-03
  6.61126245e-03  1.01960646e-02  6.34069927e-03  1.04041519e-02
 -7.25769019e-03  7.00145215e-03  1.15984473e-02  1.19578559e-02
  9.48119350e-03  8.53839051e-03 -1.18510351e-02 -8.08042008e-03
 -8.57234281e-03 -8.57048761e-03  8.66469555e-03 -6.34455308e-03
  9.67890117e-03 -1.43919159e-02  4.04831115e-03  4.56601568e-03
 -1.25380987e-02  9.65453777e-03  6.35171030e-03 -3.31928558e-03
 -1.18735107e-02  6.58849720e-03 -4.27900697e-04  4.88496991e-03
  1.24332346e-02 -7.37208221e-03 -8.83767009e-03 -8.23281892e-03
 -6.89892331e-03  8.36496428e-03 -1.17509095e-02 -1.17064668e-02
 -7.44130230e-03 -1.04744053e-02  1.01312315e-02 -1.13279801e-02
 -1.09571097e-02  1.39913186e-02  1.23798326e-02  1.06727658e-02
 -6.86308276e-03  1.16824191e-02 -1.45227285e-02  1.05474060e-02
  5.46019059e-03 -1.00053102e-02  1.15350578e-02  8.84390716e-03
 -1.21734766e-02 -1.22943306e-02 -9.11320746e-03 -1.13095846e-02
 -9.15396865e-03  8.24837945e-03 -7.81013339e-04  8.31965636e-03
  3.12382448e-03 -1.01203686e-02 -1.09395171e-02 -7.32665556e-03
  1.37205115e-02  3.34413908e-03 -1.20324444e-03  7.71826552e-03
 -9.89382155e-03 -1.22292871e-02 -3.92479151e-02 -8.89552571e-03
  2.84640910e-03 -3.03207571e-03 -2.31070444e-02  1.78596526e-02
 -1.13350805e-02 -4.16046567e-03 -1.43685229e-02 -1.03491694e-02
 -1.32254772e-02 -1.20788701e-02 -3.77465598e-02 -2.00546086e-02
 -1.81608777e-02 -5.95317408e-02 -3.61212902e-02 -1.38572939e-02
 -1.90690644e-02 -3.13528217e-02 -8.48547928e-03 -2.89483462e-02
 -5.64688258e-02 -1.49893798e-02 -2.41097324e-02 -1.03160599e-02
 -8.15066043e-03 -2.32446566e-02 -9.07698181e-03 -2.64756978e-02
 -1.95220355e-02 -2.73478497e-03 -1.23033058e-02 -2.32452936e-02
 -2.29502507e-02 -2.32976452e-02 -4.08766940e-02 -3.04443706e-02
 -2.41750777e-02 -1.10907014e-02 -5.59274852e-03 -4.22157981e-02
 -4.98336926e-02 -1.95400100e-02 -7.35978829e-03 -2.33990401e-02
 -4.17127013e-02 -1.70979351e-02 -2.11920626e-02 -2.42790859e-02
 -3.22137168e-03 -1.33677451e-02 -3.08673158e-02 -3.46099176e-02
 -5.07614836e-02 -7.26617314e-03  6.06281828e-05 -3.20323892e-02
 -4.81649023e-03 -4.99767959e-02 -8.44910741e-03 -1.16251102e-02
 -3.47348526e-02 -1.73423309e-02 -2.12816857e-02 -1.32962149e-02
 -1.02271494e-02 -6.97391061e-03 -1.21266898e-02 -1.05061941e-03
 -3.61858085e-02 -2.16582278e-03 -1.71647854e-02 -2.16418300e-02
 -1.10169342e-02 -2.46767234e-02  8.36147985e-04 -2.61412654e-02
 -3.18723433e-02 -5.97231183e-03 -7.68418005e-03 -1.14173898e-02
 -1.23027405e-02 -1.10037439e-02 -7.09188404e-03 -3.62228267e-02
 -3.51627171e-02 -2.35909391e-02 -3.79731948e-03 -4.06692438e-02
 -2.45743971e-02 -8.35624896e-03 -1.08223455e-02 -8.65599047e-03
  1.53595954e-02 -1.98656190e-02 -5.09765223e-02 -1.54988561e-02]
dense/kernel:0
(100, 1)
[[-0.20512165]
 [ 0.13484603]
 [-0.16301434]
 [-0.08079174]
 [-0.15679769]
 [ 0.0775457 ]
 [-0.16380997]
 [-0.2511301 ]
 [-0.12267216]
 [-0.12309993]
 [-0.17189538]
 [ 0.10596587]
 [ 0.11664644]
 [-0.11443524]
 [-0.09496303]
 [-0.13325346]
 [ 0.16354996]
 [-0.21427658]
 [-0.18157661]
 [-0.21149348]
 [ 0.17001882]
 [-0.17298962]
 [-0.17809889]
 [ 0.1796551 ]
 [ 0.11456723]
 [ 0.19846559]
 [ 0.19123986]
 [-0.17423525]
 [ 0.19346903]
 [ 0.18717599]
 [-0.19989944]
 [ 0.15219237]
 [ 0.09512027]
 [ 0.18752354]
 [ 0.1980548 ]
 [ 0.138432  ]
 [-0.17151244]
 [ 0.09966646]
 [ 0.1760544 ]
 [ 0.23895921]
 [ 0.14030498]
 [ 0.19940016]
 [-0.20138155]
 [-0.11026008]
 [-0.18154225]
 [-0.21860127]
 [ 0.10291795]
 [-0.08641467]
 [ 0.12248462]
 [-0.18069527]
 [ 0.1681303 ]
 [ 0.11094701]
 [-0.22019608]
 [ 0.14808647]
 [ 0.18480037]
 [-0.11270268]
 [-0.19830543]
 [ 0.07114233]
 [ 0.03884232]
 [ 0.1864669 ]
 [ 0.0826078 ]
 [-0.08240284]
 [-0.09492328]
 [-0.17682418]
 [-0.15876226]
 [ 0.1816643 ]
 [-0.1312813 ]
 [-0.19503489]
 [-0.07642249]
 [-0.15706688]
 [ 0.13921134]
 [-0.21512125]
 [-0.20151925]
 [ 0.14862697]
 [ 0.10173228]
 [ 0.20416707]
 [-0.1274681 ]
 [ 0.2382257 ]
 [-0.10389372]
 [ 0.18618828]
 [ 0.11686696]
 [-0.10502298]
 [ 0.13682081]
 [ 0.11500564]
 [-0.16610886]
 [-0.21029715]
 [-0.22004782]
 [-0.11096262]
 [-0.13555753]
 [ 0.19181453]
 [-0.07158792]
 [ 0.22060414]
 [ 0.19266595]
 [-0.20741343]
 [-0.23810321]
 [-0.0888804 ]
 [ 0.10178974]
 [-0.11005972]
 [-0.12073247]
 [ 0.1791181 ]]
dense/bias:0
(1,)
[0.15072818]
