lstm/lstm_cell/kernel:0
(1, 320)
[[ 0.07955636 -0.00737644  0.12424739 -0.14885111  0.14740954  0.14533979
   0.02706374  0.1447541   0.05826133 -0.07731052 -0.02774472  0.05186637
  -0.05181189 -0.1000262   0.14900382  0.22225673 -0.03908538  0.00864378
   0.08864389  0.1719627   0.09504965 -0.01828169  0.10236932  0.01440518
   0.06595331 -0.03228145  0.14881508  0.03209277 -0.06960224  0.05341093
   0.12724914  0.0123927  -0.06912834 -0.1093392   0.01872391 -0.04250373
   0.01043675  0.06659945  0.00321199  0.03640308  0.15335709 -0.00683888
  -0.07057559  0.09761457  0.07428161 -0.08980224 -0.0706822   0.07147051
   0.01200501  0.05228647 -0.0637046   0.07467978 -0.0312406  -0.02182108
   0.19438545 -0.09156729 -0.1304265   0.14247692  0.03730677 -0.0117978
  -0.06764191  0.16382666  0.12412113 -0.04402675  0.08775644  0.14056042
   0.00649259  0.06966159 -0.03627146 -0.06528202  0.08226057  0.10403994
   0.12430675  0.05006581  0.11527138 -0.05690238 -0.14409761  0.02506699
  -0.0570124  -0.12476568 -0.00732264  0.06653433  0.12365889 -0.03205739
   0.00651435 -0.01412257  0.0991635   0.03961138  0.08163831  0.13713041
  -0.03360582  0.12390465  0.03812746  0.06094463  0.06206797  0.14138311
  -0.1123606   0.10893091 -0.08756138 -0.09660479 -0.06575342  0.0448296
   0.04177869  0.14049287 -0.00264242 -0.01492694 -0.11872882 -0.02583439
  -0.00538747 -0.00075799  0.07689674  0.01469697  0.09335492 -0.0896798
   0.02016278  0.05292632  0.13236372 -0.02457273  0.03427618 -0.00437678
   0.02606882  0.04325006  0.07449605 -0.10343666  0.00668009 -0.00896629
   0.08467111  0.09331901 -0.11652167  0.03966885  0.0317163   0.1358199
  -0.07584504 -0.11188537  0.05931321  0.12995535  0.01863808 -0.06034094
   0.06701677  0.09236423 -0.12031171 -0.12147397  0.04389107  0.00899773
  -0.03672734  0.01846997  0.08326058 -0.04541815 -0.02522517 -0.09748252
   0.1013866   0.0566727   0.02100573  0.08757268 -0.08037817  0.01654761
   0.00164422  0.09767225  0.00733748 -0.1364822  -0.0969932  -0.08820552
   0.08930438 -0.03351903 -0.13006417  0.12077982  0.04386124 -0.06083096
   0.04849594  0.13280015 -0.05804456 -0.07202668 -0.0340176   0.03437041
   0.09446776  0.10811299  0.13323918 -0.04457883  0.096809    0.15060633
   0.06393642  0.0741966   0.12570937 -0.13053425  0.12815934 -0.08259134
  -0.10822485 -0.06858929  0.13094212 -0.10261843 -0.06504793 -0.00318628
   0.03702518 -0.02461164  0.15851249 -0.04862412 -0.0692315   0.09605233
   0.07245352  0.06980453  0.04088401  0.08956184  0.08803501  0.11638907
  -0.09091183  0.01173531  0.06593438  0.11991291 -0.0233848   0.08588547
  -0.093215   -0.0336199  -0.08783403  0.10944729 -0.09312367 -0.02284587
   0.00091211 -0.09196047 -0.10556962  0.10275709  0.13476889 -0.13758457
  -0.12902956 -0.01648909  0.04866411 -0.12405862  0.02027666  0.12394664
  -0.12955125 -0.03970824 -0.03875595 -0.04467769  0.05570436 -0.1451695
  -0.1234372  -0.02549808 -0.05707075  0.10887146 -0.12208804  0.02372899
   0.08273461  0.01704194  0.06660431  0.06353302  0.09928077  0.11465622
   0.08999071  0.08842852  0.07328621  0.1424966   0.11654828 -0.03914678
   0.04062242  0.10709444 -0.03465414  0.07285689 -0.06265042  0.0714599
   0.15235586  0.02013224 -0.03454562 -0.03503592  0.06672135  0.0861005
   0.12006903  0.00207204  0.10296033  0.0467913  -0.00506354  0.03219811
  -0.03793094  0.02180355  0.0385804   0.10107952  0.24536756  0.08671115
   0.12523815 -0.09715658  0.01225635  0.06268064  0.19268848 -0.03768621
  -0.02273677  0.14617828  0.16308032 -0.07699716 -0.01390195  0.09412462
  -0.09640666  0.0598334   0.02232772 -0.05370304  0.2059813  -0.04304456
   0.18338299  0.04471188  0.04164894 -0.09310922  0.14115837 -0.05518734
  -0.06715178  0.22854552  0.15064183  0.10583938 -0.0528419  -0.10310525
  -0.04293764 -0.09846491 -0.00647835  0.00700266 -0.01427688 -0.11837567
   0.05156587  0.03212847  0.03600319 -0.08039675 -0.08335075  0.13302396
   0.01425271 -0.04863669]]
lstm/lstm_cell/recurrent_kernel:0
(80, 320)
[[-0.11327896 -0.00784261 -0.00549549 ... -0.0789751   0.07752123
  -0.08309697]
 [-0.07387298  0.02514326  0.08972165 ... -0.02997911 -0.0470499
   0.01021157]
 [-0.03653508 -0.02144662 -0.05051397 ...  0.00468552  0.03842348
  -0.03628831]
 ...
 [ 0.01847572 -0.00531772  0.06764118 ...  0.09044015  0.07871057
   0.03154269]
 [-0.0003905  -0.07218727 -0.02706299 ... -0.03678431  0.04109133
  -0.01328477]
 [ 0.0156465   0.11773556  0.07685254 ...  0.07349424 -0.03075017
   0.05328341]]
lstm/lstm_cell/bias:0
(320,)
[-1.21443924e-02  1.40710995e-02  4.48746094e-03 -3.20737697e-02
  3.64276133e-02  5.44657838e-03 -7.29190093e-03  4.10860125e-03
 -2.83915992e-03  1.17021035e-02 -1.05728423e-02  4.97064693e-03
  2.47378703e-02  2.40006740e-03  1.18542043e-02  4.75265682e-02
  4.81385970e-03  1.69302640e-03  3.72036616e-03  6.11949414e-02
 -1.12406118e-02 -2.74695898e-03 -3.67377675e-03 -1.29058363e-03
  7.08367210e-03  3.10367625e-03  3.93559970e-03  2.83182738e-03
  8.70580552e-04  8.91149603e-03  1.20608986e-03 -6.36071945e-03
 -1.02890637e-02 -4.67606680e-03  5.70016503e-02 -7.33196386e-04
 -3.05841817e-03 -1.69868791e-03  1.79736922e-03  3.68497428e-03
  3.72323324e-03  1.30795166e-02  1.34143755e-02 -1.18098380e-02
  1.36337318e-02 -2.83381902e-03 -3.67396255e-03 -6.68785209e-03
 -1.57502312e-02  1.54510913e-02 -7.17197661e-04  3.83687415e-03
  1.42803425e-02  6.02201140e-03  2.63756495e-02 -5.73864952e-03
 -7.41183944e-03 -7.95243599e-04 -3.28246853e-03  1.60868245e-03
  1.62279494e-02  7.84821585e-02  3.32188793e-03 -1.68244522e-02
 -6.31031767e-03 -3.48644644e-05 -1.95287932e-02  1.31854776e-03
 -3.99273820e-03 -6.22819923e-03  2.22144788e-03 -1.19789438e-02
  1.91473321e-03  4.94403094e-02  7.80892232e-03  1.37088844e-03
 -1.90635957e-02  4.85247821e-02  3.35472003e-02 -1.92227028e-02
  9.88778472e-01  9.78637874e-01  9.96765316e-01  9.60465074e-01
  9.96775985e-01  9.95763242e-01  9.75631773e-01  9.93577898e-01
  9.93028820e-01  9.83481884e-01  9.88144934e-01  9.94720936e-01
  9.98814821e-01  1.00140476e+00  9.76822078e-01  9.56034303e-01
  9.91413355e-01  9.93351340e-01  9.94305432e-01  9.65375960e-01
  9.83054757e-01  9.72337663e-01  9.85767782e-01  9.90404785e-01
  9.93910849e-01  9.91750777e-01  9.92960930e-01  9.95317757e-01
  9.94243681e-01  9.91860986e-01  9.96058464e-01  9.92465496e-01
  9.88570392e-01  9.91131723e-01  9.89458025e-01  9.82742012e-01
  9.75225925e-01  9.91544902e-01  9.80858684e-01  9.96779740e-01
  9.78470504e-01  9.96055543e-01  9.87483084e-01  9.80804145e-01
  9.91028666e-01  9.91764069e-01  9.88382101e-01  9.89538312e-01
  9.77770925e-01  9.87371147e-01  9.80966866e-01  9.99233067e-01
  9.56843376e-01  9.94742751e-01  9.81095552e-01  9.85349119e-01
  9.92125094e-01  9.89841104e-01  9.86910880e-01  9.93119955e-01
  9.89157379e-01  9.66382921e-01  9.95324492e-01  9.65280175e-01
  9.92123306e-01  9.97189343e-01  9.81084108e-01  9.93970871e-01
  9.89052415e-01  9.86660600e-01  9.90199149e-01  9.86094832e-01
  9.91879702e-01  9.87317324e-01  9.91323829e-01  9.99083698e-01
  9.77488458e-01  9.89059746e-01  9.84502196e-01  9.76270258e-01
  1.42481364e-02  1.99877042e-02 -1.23084774e-02  8.34759325e-03
  1.92635134e-02 -1.45944608e-02 -1.08993677e-02  1.07904011e-02
 -9.05273855e-03 -1.90570690e-02  1.69322453e-02  9.10186768e-03
  4.18168632e-03 -4.87866672e-03 -8.98563210e-03 -1.69335511e-02
 -1.91188641e-02  1.02834953e-02 -1.41610242e-02 -2.32867394e-02
 -1.42532038e-02 -1.12103587e-02 -2.20637359e-02  2.06560809e-02
 -1.56165110e-02  1.35035645e-02  1.46930013e-02  1.18607720e-02
 -1.41917020e-02  1.80842169e-02  9.09906346e-03 -2.98592658e-03
 -9.10635944e-03  1.05877556e-02 -2.70926338e-02  1.37826251e-02
  1.07008023e-02 -1.25887301e-02 -1.62644982e-02 -9.84226912e-03
  1.28817616e-03 -1.36714401e-02 -1.76966302e-02 -2.49313917e-02
  1.52187664e-02 -8.68117437e-03 -1.30220009e-02 -2.34150123e-02
  1.37493610e-02 -1.65115502e-02  1.96194481e-02  3.58240237e-03
  9.40025412e-03 -1.81587394e-02  2.15215180e-02  3.75064649e-03
  4.11534187e-04  1.64833181e-02  1.77345611e-02 -1.77902691e-02
 -2.43362058e-02  2.54053753e-02  1.84483025e-02  4.96458914e-03
  1.91994861e-03  1.32921049e-02 -4.21283115e-03 -1.90370642e-02
  1.48625588e-02  1.84319504e-02  1.13115404e-02  1.06029538e-02
 -1.06973406e-02  2.57503167e-02  1.65485982e-02  4.70486144e-03
  1.37293711e-02 -1.62216928e-02  2.01534331e-02 -8.60301405e-03
 -1.19862929e-02  1.36962496e-02  4.44239285e-03 -3.28739919e-02
  3.60704996e-02  5.37287258e-03 -9.28995386e-03  4.03632177e-03
 -2.91876378e-03  9.11908038e-03 -1.06977755e-02  5.76654309e-03
  2.29361132e-02  1.53910019e-03  1.53695112e-02  4.89016473e-02
  5.27182827e-03  1.01154717e-03  2.64510186e-03  6.23856634e-02
 -1.07833622e-02 -2.05203681e-03 -3.50169302e-03 -2.20683403e-03
  6.05408009e-03  2.94422498e-03  4.29398054e-03  2.72196252e-03
  7.07248459e-04  8.90208315e-03  2.05693883e-03 -6.27708621e-03
 -1.01725245e-02 -5.60204033e-03  4.74302061e-02 -7.45447585e-04
 -5.21322666e-03 -5.75386570e-04  1.84878160e-03  3.44160548e-03
  1.62887073e-03  1.36606954e-02  1.30718565e-02 -1.24426978e-02
  1.19095454e-02 -2.62669683e-03 -3.75905144e-03 -6.91445824e-03
 -1.46974400e-02  1.48114162e-02 -8.19871319e-04  4.57777688e-03
  6.92092627e-03  6.30814303e-03  2.42577437e-02 -6.32206397e-03
 -7.77800567e-03  1.31711364e-03 -4.61269170e-03  2.21398193e-03
  1.59182604e-02  7.59497285e-02  2.63236091e-03 -1.86788104e-02
 -6.16617920e-03  1.51536451e-03 -1.94787923e-02  2.94549274e-03
 -4.08835383e-03 -6.15835888e-03  3.17180203e-03 -1.26758125e-02
  2.39961990e-03  4.93228249e-02  8.40328820e-03  1.37867127e-03
 -1.90068483e-02  4.44441922e-02  3.30163911e-02 -1.91999506e-02]
lstm_1/lstm_cell_1/kernel:0
(80, 400)
[[-0.08024488 -0.0714035  -0.00365502 ... -0.08165246 -0.06236811
   0.02360698]
 [-0.10604271  0.05573784 -0.07469396 ... -0.04830178 -0.01237532
   0.09718925]
 [-0.08022131 -0.07640316  0.0054372  ... -0.00191001  0.05010916
   0.0196708 ]
 ...
 [-0.09269466 -0.07558199 -0.0612323  ...  0.01957019  0.0803055
   0.12504312]
 [-0.11632474 -0.1381239  -0.04315924 ... -0.0369471   0.0129334
  -0.01746912]
 [-0.00053048 -0.02826683  0.0633346  ... -0.04449258  0.06393414
  -0.07253909]]
lstm_1/lstm_cell_1/recurrent_kernel:0
(100, 400)
[[-0.04859427 -0.00174657  0.05793551 ... -0.06808445  0.01188181
  -0.02582142]
 [-0.0618628  -0.01772757  0.01205357 ...  0.04850809 -0.0355128
  -0.03757438]
 [ 0.05127439 -0.01058515  0.03132417 ... -0.12862632  0.01327188
   0.07798367]
 ...
 [-0.08521897  0.14182737 -0.01562797 ... -0.00685615 -0.06601194
   0.04509986]
 [ 0.02667064  0.10086764  0.03212991 ... -0.02085171  0.07466651
   0.0235299 ]
 [ 0.06463618 -0.01401887  0.02535682 ... -0.0356006  -0.02082371
   0.01046929]]
lstm_1/lstm_cell_1/bias:0
(400,)
[ 2.17551505e-03 -2.79845367e-03 -2.24872548e-02  2.75320862e-03
  1.03674000e-02  6.01892686e-03 -1.35016907e-02  2.48684883e-02
 -2.06030300e-03 -3.61079059e-04 -2.11810251e-03 -7.58892915e-04
 -3.14216921e-03 -3.62392562e-03 -1.84546467e-02 -1.05669089e-02
 -5.94511302e-03 -3.70081142e-02 -2.57986449e-02 -6.81139994e-03
 -9.49639268e-03 -1.82010271e-02  1.63310010e-03 -1.20980712e-02
 -4.23971638e-02 -6.61800429e-03 -1.56485792e-02 -2.25398038e-03
 -1.70381251e-03 -1.57545134e-02  1.04541679e-04 -1.07992329e-02
 -3.06610554e-03  1.88434124e-03 -5.14037395e-03 -1.02588553e-02
 -1.05460919e-02 -8.36359244e-03 -2.28852909e-02 -1.64855178e-02
 -8.82930122e-03 -5.14834188e-03  8.92099517e-04 -2.34614890e-02
 -2.72336155e-02 -8.80877580e-03  9.09821392e-06 -1.12017021e-02
 -2.03585103e-02 -4.67395876e-03 -1.23948902e-02 -1.28344949e-02
  5.95158385e-03 -5.89825260e-03 -1.68925375e-02 -1.54134436e-02
 -3.37444469e-02  3.91065143e-04 -1.86797022e-03 -1.97314322e-02
  6.46656239e-03 -3.19567733e-02 -1.09499041e-03 -7.07318890e-04
 -1.91854388e-02 -9.81353968e-03  1.43676327e-04 -3.21007776e-03
 -2.82859430e-04 -5.60047862e-04 -3.75475525e-03  5.61961345e-03
 -2.35363785e-02  2.13844189e-03  4.11306974e-03 -9.52927861e-03
 -4.24003601e-03 -1.31863113e-02  6.14979677e-03 -1.18169226e-02
 -1.24843465e-02  4.43226309e-04  2.08915304e-03 -2.85980501e-03
 -5.67981694e-03 -2.35340791e-03  2.96618120e-04 -2.14830767e-02
 -2.66650822e-02 -1.38395783e-02 -2.96110823e-03 -2.55523119e-02
 -1.71417426e-02 -3.52999754e-03  2.01638322e-03 -5.29074750e-04
  2.07012836e-02 -5.49125671e-03 -3.15988958e-02 -5.05878543e-03
  9.91277039e-01  9.91416156e-01  9.82836902e-01  9.98217463e-01
  1.00430131e+00  1.00489056e+00  9.61681485e-01  9.85735297e-01
  9.97581184e-01  1.00045383e+00  9.79676366e-01  9.98227358e-01
  9.93528605e-01  9.94223714e-01  9.83104110e-01  9.89660084e-01
  9.89132941e-01  9.60056543e-01  9.61515546e-01  9.93885696e-01
  9.94383216e-01  9.62826610e-01  1.00176179e+00  9.87965763e-01
  9.39685106e-01  9.58087146e-01  9.83175814e-01  9.92686272e-01
  9.95723665e-01  9.84018207e-01  9.88488197e-01  9.74691808e-01
  9.96456742e-01  9.99981642e-01  9.95650291e-01  9.89888549e-01
  9.86957967e-01  9.86951590e-01  9.65703845e-01  9.68577027e-01
  9.80003655e-01  9.94540811e-01  9.99912083e-01  9.59729314e-01
  9.61695433e-01  9.90686893e-01  9.99697804e-01  9.88457143e-01
  9.77937758e-01  9.85513151e-01  9.89088893e-01  9.85143125e-01
  9.80690420e-01  9.86585021e-01  9.79927361e-01  9.80587661e-01
  9.45056617e-01  1.00051188e+00  9.97584701e-01  9.77631509e-01
  1.00013924e+00  9.69871700e-01  9.96752918e-01  9.74227965e-01
  9.86867845e-01  9.86024737e-01  9.95316207e-01  9.93915439e-01
  9.99953091e-01  9.97406840e-01  9.94939208e-01  1.00094616e+00
  9.78711307e-01  1.00091529e+00  9.91860449e-01  9.90279913e-01
  9.95254755e-01  9.86589491e-01  1.00099492e+00  9.82391477e-01
  9.78076816e-01  1.00009024e+00  1.00050318e+00  9.96624231e-01
  9.72648740e-01  9.95798588e-01  9.95200992e-01  9.72621620e-01
  9.67266202e-01  9.84237015e-01  9.97370243e-01  9.69042242e-01
  9.84221697e-01  9.97050464e-01  9.95067239e-01  9.97673750e-01
  1.01117742e+00  9.97146308e-01  9.61119235e-01  9.95367765e-01
 -7.80855445e-03  2.89733568e-03  3.98401450e-03 -5.89550333e-03
 -1.21446373e-02  9.74778645e-03 -9.74023063e-03 -1.30589204e-02
 -9.70153697e-03 -2.89461738e-03 -1.01626189e-02  8.04739539e-03
  6.82371575e-03 -5.76286111e-03 -4.52934252e-03 -4.48028697e-03
  1.16599258e-02 -5.32780169e-03 -9.06002149e-03 -4.64078318e-03
  7.08565349e-03 -1.11174043e-02 -1.44357551e-02  7.34594651e-03
  1.22404872e-02  1.57838427e-02  7.46620167e-03 -1.22824507e-02
  8.21511820e-03  6.00318797e-03 -1.23403640e-02  4.57100384e-03
  5.34836715e-03  8.16809665e-03  4.90433490e-03  8.38008057e-03
 -5.88003360e-03  1.10652121e-02  4.76875575e-03  9.12249554e-03
  1.05384709e-02  6.11667708e-03 -9.41715576e-03 -5.70773939e-03
 -6.91280607e-03 -7.70273246e-03  5.60852652e-03 -7.86446594e-03
  4.78559174e-03 -1.40878875e-02  2.01895414e-03  5.51825622e-03
 -1.31005282e-02  7.89751578e-03  5.89970825e-03  1.12583919e-03
 -6.52055349e-03  6.38207980e-03 -1.64827541e-03  6.96257735e-03
  8.82934965e-03 -6.02838257e-03 -8.13037623e-03 -8.46219063e-03
 -8.07693228e-03  7.89616257e-03 -1.02520436e-02 -9.80570540e-03
 -7.91759137e-03 -7.34812813e-03  1.14314575e-02 -1.01637021e-02
 -1.01715997e-02  1.18139330e-02  1.04192756e-02  8.17040354e-03
 -3.95074999e-03  1.12699140e-02 -1.60884485e-02  8.41849018e-03
  3.40807624e-03 -1.00415722e-02  1.18471198e-02  1.09203188e-02
 -1.13140540e-02 -1.06621869e-02 -6.85004843e-03 -1.08799459e-02
 -6.26132591e-03  6.14681002e-03 -4.09120135e-03  6.11000415e-03
  5.36660990e-03 -6.89318031e-03 -9.16767400e-03 -7.56049529e-03
  1.28205186e-02  4.79864283e-03 -4.10225388e-04  8.22077878e-03
  1.37276889e-03 -3.67235043e-03 -2.17748377e-02  1.92008587e-03
  9.88956261e-03  4.40580910e-03 -1.49628557e-02  2.39845347e-02
 -2.78140372e-03 -4.21631470e-04 -3.15683521e-03 -2.62119644e-03
 -3.86575912e-03 -3.94228753e-03 -1.87481120e-02 -1.17296688e-02
 -6.47829287e-03 -3.90716344e-02 -2.67486759e-02 -6.87204069e-03
 -9.94262286e-03 -1.97361019e-02  1.23840442e-03 -1.32132992e-02
 -4.45269309e-02 -8.06536805e-03 -1.57050993e-02 -2.67305411e-03
 -2.03831680e-03 -1.51552223e-02 -2.23081646e-04 -1.31252808e-02
 -4.15341277e-03  1.39526953e-03 -5.17208455e-03 -1.03851371e-02
 -1.04798097e-02 -8.00008886e-03 -2.41493527e-02 -1.77194383e-02
 -1.05596287e-02 -5.38564613e-03  5.02385257e-04 -2.44750138e-02
 -2.75772866e-02 -9.28808376e-03 -1.16569072e-03 -1.17138280e-02
 -2.17480231e-02 -6.29449403e-03 -1.23350369e-02 -1.30239623e-02
  6.14490127e-03 -6.02676766e-03 -1.72787812e-02 -1.64254680e-02
 -3.41705792e-02 -6.00993983e-04 -1.67038781e-03 -2.08834484e-02
  4.93065687e-03 -3.15082222e-02 -1.77326798e-03 -1.45472144e-03
 -1.89639293e-02 -1.01220198e-02 -3.41215543e-03 -3.93100642e-03
 -8.09626130e-04 -9.54707386e-04 -4.27992921e-03  5.64356986e-03
 -2.41711978e-02  1.31885963e-03  1.31625345e-03 -1.00405421e-02
 -4.76508960e-03 -1.37859695e-02  5.81669947e-03 -1.20076798e-02
 -1.43705122e-02 -2.33452738e-04  1.16821844e-03 -3.53730936e-03
 -6.35576388e-03 -2.69329036e-03 -5.64178044e-05 -2.22314987e-02
 -2.50971839e-02 -1.36760212e-02 -3.10243829e-03 -2.54659094e-02
 -1.69151444e-02 -3.96275101e-03  1.51296263e-03 -1.78916438e-03
  2.02033781e-02 -6.28426764e-03 -3.32561955e-02 -5.31268306e-03]
dense/kernel:0
(100, 1)
[[-0.20592822]
 [ 0.13222072]
 [-0.16339295]
 [-0.07136004]
 [-0.15067273]
 [ 0.06731288]
 [-0.15589997]
 [-0.2511115 ]
 [-0.11473107]
 [-0.11474266]
 [-0.16648696]
 [ 0.09487081]
 [ 0.11357895]
 [-0.1142946 ]
 [-0.06209592]
 [-0.13291368]
 [ 0.16316114]
 [-0.21133272]
 [-0.18046796]
 [-0.21828917]
 [ 0.17168501]
 [-0.16887334]
 [-0.18049797]
 [ 0.18435687]
 [ 0.10022782]
 [ 0.19672537]
 [ 0.19714054]
 [-0.17519395]
 [ 0.19702138]
 [ 0.18846513]
 [-0.20167094]
 [ 0.14953329]
 [ 0.08405249]
 [ 0.189612  ]
 [ 0.20599265]
 [ 0.13368839]
 [-0.17171627]
 [ 0.07451499]
 [ 0.17400345]
 [ 0.24142598]
 [ 0.13230914]
 [ 0.20590156]
 [-0.20369938]
 [-0.10209735]
 [-0.18214028]
 [-0.22531319]
 [ 0.09988291]
 [-0.06483594]
 [ 0.11532003]
 [-0.18189101]
 [ 0.17312382]
 [ 0.10546857]
 [-0.21755974]
 [ 0.14464517]
 [ 0.18765604]
 [-0.0951253 ]
 [-0.19656174]
 [ 0.05797781]
 [ 0.00644909]
 [ 0.18849891]
 [ 0.07300413]
 [-0.04046494]
 [-0.08851248]
 [-0.17173931]
 [-0.15819784]
 [ 0.18084535]
 [-0.12255582]
 [-0.19956405]
 [-0.04753599]
 [-0.1643055 ]
 [ 0.13193382]
 [-0.21775986]
 [-0.20656593]
 [ 0.1511779 ]
 [ 0.08866908]
 [ 0.20850033]
 [-0.13007176]
 [ 0.24144603]
 [-0.09263715]
 [ 0.18854384]
 [ 0.10683317]
 [-0.10142781]
 [ 0.13166322]
 [ 0.10581783]
 [-0.16261311]
 [-0.21445881]
 [-0.22341973]
 [-0.1010886 ]
 [-0.12969637]
 [ 0.19247329]
 [-0.05365539]
 [ 0.22007264]
 [ 0.19794011]
 [-0.2152294 ]
 [-0.24460295]
 [-0.08356334]
 [ 0.08740515]
 [-0.08086811]
 [-0.10971152]
 [ 0.18352364]]
dense/bias:0
(1,)
[0.0790849]
