baseline/conv2d/kernel:0
(5, 5, 3, 6)
[[[[-7.71146789e-02  2.69557208e-01  8.71457607e-02 -2.38391142e-02
     1.28930472e-02  2.74884492e-01]
   [-1.01829022e-01  1.04317859e-01 -2.68781409e-02 -2.03576796e-02
     6.85807467e-02  2.57245988e-01]
   [-1.90041170e-01 -1.50141552e-01  5.25875166e-02 -1.68674123e-02
     7.77892768e-04  1.02626584e-01]]

  [[-2.46383741e-01  2.15013906e-01 -8.71392339e-02  1.26174726e-02
     1.77415460e-01 -5.25222681e-02]
   [-5.51558994e-02 -1.03137292e-01 -8.54507163e-02 -1.14112318e-01
    -6.62452132e-02 -1.50406972e-01]
   [ 6.44666553e-02  4.13249098e-02  2.78281365e-02  9.60967913e-02
    -9.10819694e-02 -4.02074903e-02]]

  [[-5.63548468e-02  4.83520851e-02  6.36801347e-02  9.82688144e-02
    -5.28902672e-02 -1.89751640e-01]
   [-1.02406651e-01  3.81595306e-02  2.18678445e-01 -1.15223274e-01
     2.95511335e-01 -2.11179242e-01]
   [ 2.04207852e-01  1.76302686e-01 -3.50695513e-02 -1.17000127e-02
    -4.55763005e-02 -7.81114325e-02]]

  [[ 7.81533215e-03  1.14124278e-02 -1.98480472e-01  6.47910237e-02
     8.87149274e-02 -1.20820776e-01]
   [ 8.00631568e-03  1.28636539e-01  3.51523757e-02 -1.40414432e-01
     1.61890447e-01  5.75767271e-02]
   [ 2.83319265e-01  1.23804532e-01  5.81452586e-02 -1.37023106e-01
    -1.20643690e-01  1.36283487e-01]]

  [[ 5.54963835e-02  2.08674848e-01  4.59959097e-02 -1.37673859e-02
     7.86820576e-02 -1.08266883e-01]
   [-3.19787790e-03  7.89782554e-02  8.53214934e-02  1.19132347e-01
     6.12557307e-02  4.27320935e-02]
   [ 2.11641997e-01 -1.26292348e-01  6.76204115e-02  4.76334170e-02
    -1.51661858e-01  3.43156494e-02]]]


 [[[-7.28897750e-02 -7.82096311e-02  6.40298873e-02 -8.81326664e-03
     6.89132586e-02  7.16769099e-02]
   [-1.29963905e-02 -4.49218340e-02 -2.19956096e-02  1.15115985e-01
    -5.27021708e-03 -1.43799081e-01]
   [-1.64442062e-01 -2.08200186e-01  7.40145147e-02  1.11712806e-01
    -2.04249829e-01 -7.50883520e-02]]

  [[ 1.77389439e-02  5.13164364e-02 -1.08814314e-01 -1.13008849e-01
    -6.16415730e-03  7.75120631e-02]
   [-4.14815806e-02 -1.10786580e-01 -1.97771952e-01  1.30969062e-01
    -5.08223474e-03  6.47463351e-02]
   [ 1.50978267e-01 -1.91414058e-01 -1.22510113e-01 -9.87724494e-03
    -1.07361205e-01  3.31860334e-02]]

  [[-1.00743778e-01  9.11706156e-05 -8.17450285e-02  3.79567407e-02
     1.39984712e-01  6.69909036e-03]
   [-3.27244103e-02 -2.12174863e-01  1.58705965e-01 -3.91940661e-02
     1.66611016e-01  7.20654577e-02]
   [ 2.77402669e-01 -1.96905732e-01  1.28300667e-01 -2.15215787e-01
    -1.20938770e-01 -1.28704175e-01]]

  [[-2.67602224e-02  8.98678508e-03 -1.98818371e-01 -2.62202304e-02
    -1.98627636e-01 -4.63769212e-03]
   [ 7.51921674e-03 -1.49857536e-01  1.06741890e-01 -1.78951025e-01
     1.53573290e-01 -9.13185030e-02]
   [ 9.56775174e-02 -1.01457156e-01  1.92464516e-01 -1.15091264e-01
    -1.09256878e-01  1.13758914e-01]]

  [[-1.51971489e-01 -5.97539470e-02 -6.99378029e-02  2.39127040e-01
    -1.06969550e-01  5.70293516e-02]
   [ 4.84140664e-02 -1.41992807e-01 -8.78588557e-02 -3.45461746e-03
     7.20479861e-02  1.84534207e-01]
   [ 5.64701147e-02 -4.99425866e-02  1.71175495e-01  1.43339887e-01
    -1.19536124e-01 -1.07678413e-01]]]


 [[[-1.81706741e-01  1.77466273e-01  2.75804531e-02  3.40094678e-02
     7.60569721e-02 -1.81273833e-01]
   [ 2.49538124e-02 -6.11384690e-04 -9.10512507e-02  6.82335794e-02
     1.66014340e-02 -1.51060015e-01]
   [ 1.63814604e-01  5.71071766e-02  1.38549581e-01  6.44576475e-02
     8.69085118e-02 -2.03372791e-01]]

  [[ 5.58070093e-02  1.31336346e-01 -1.39120549e-01 -2.43906770e-02
    -1.02700619e-03 -8.98963884e-02]
   [-5.05151153e-02 -1.46409377e-01 -5.73411584e-02  6.84254840e-02
     7.96718244e-03 -1.57972276e-02]
   [ 1.12974636e-01  1.55707210e-01  7.51708746e-02  1.66248769e-01
     5.98570593e-02 -9.42836776e-02]]

  [[ 3.09649538e-02  3.85423265e-02 -2.36901999e-01 -1.62683308e-01
     1.95757553e-01  8.38535652e-02]
   [ 3.28672002e-03  2.55006347e-02  1.19797448e-02 -2.20333025e-01
     2.59157866e-01 -4.92453063e-03]
   [ 1.51975974e-01  1.94277167e-01  1.52455196e-01 -1.23765826e-01
     2.81741470e-01 -1.18389241e-02]]

  [[ 3.89350280e-02 -5.28954044e-02 -1.68206483e-01 -1.49344340e-01
     2.38724742e-02  3.00106797e-02]
   [-6.13426650e-03  9.31526721e-02 -6.38491521e-03 -2.35149294e-01
     1.19018562e-01  2.05104738e-01]
   [ 1.08115107e-01  1.91205785e-01  1.75924808e-01 -8.52411315e-02
     1.87665820e-01 -2.75819208e-02]]

  [[-4.51448560e-02 -4.54430021e-02 -1.69065058e-01  2.16590658e-01
     2.67660078e-02 -9.71476659e-02]
   [-1.38123948e-02  6.50019050e-02  1.46902531e-01  1.32122576e-01
    -1.25462472e-01  1.47468925e-01]
   [ 4.28306870e-02  4.50319313e-02 -4.63075750e-02  1.96582586e-01
    -5.55869266e-02  1.05963917e-02]]]


 [[[-7.99480230e-02 -6.90456778e-02  1.41836986e-01  1.63130052e-02
     9.22305733e-02 -1.88105002e-01]
   [ 7.62242451e-02  6.01875521e-02 -4.95413616e-02  2.01611966e-02
     2.26993840e-02  6.71784729e-02]
   [ 2.48636294e-04  8.34972635e-02 -1.58598468e-01  1.13326088e-01
    -9.12515745e-02 -1.15540169e-01]]

  [[ 1.99680269e-01 -4.00860868e-02 -1.58511400e-01  1.13999188e-01
    -6.23154640e-02 -7.24619552e-02]
   [-4.27712919e-03 -4.91993167e-02 -1.94453634e-02  2.40042657e-01
     1.81093693e-01 -1.56940043e-01]
   [-5.53794168e-02  1.97917163e-01 -7.47790337e-02 -3.47399935e-02
    -1.20966673e-01  4.21489216e-02]]

  [[ 8.40714425e-02 -1.37503907e-01 -2.35577017e-01 -1.14237569e-01
     2.51532137e-01  2.51838714e-01]
   [-1.35072753e-01  8.00510943e-02 -6.18770532e-02 -2.59810120e-01
     3.51601452e-01  3.12539011e-01]
   [ 5.94409704e-02  2.32818164e-02 -6.34372309e-02 -1.12139396e-01
    -6.64142072e-02  2.02357277e-01]]

  [[ 5.62315695e-02 -2.91198846e-02 -2.65995413e-01 -2.21177712e-01
     5.91968857e-02  2.40695532e-02]
   [ 1.64497010e-02  1.33081414e-02  2.05664020e-02 -2.83585377e-02
     1.27814367e-01  1.19732030e-01]
   [-1.27289012e-01  1.01028450e-01  8.15864205e-02 -2.66265661e-01
    -9.41275135e-02 -1.24293774e-01]]

  [[ 2.37627745e-01 -3.34587181e-03 -2.60379970e-01  3.10468674e-01
    -1.90071672e-01 -1.11258291e-01]
   [-1.89296901e-01 -1.15515152e-02 -6.09334856e-02  2.02652127e-01
    -1.40460283e-01 -5.02446406e-02]
   [-2.61569291e-01 -1.30840046e-02 -2.31780082e-01  3.50197703e-02
     5.11288866e-02 -2.13150322e-01]]]


 [[[ 9.41579603e-03 -3.09814159e-02  2.62267649e-01  1.08811438e-01
    -1.09692812e-01  1.93545803e-01]
   [ 3.31241451e-02 -1.02820233e-01  2.09194228e-01 -9.54628959e-02
     2.08645537e-01 -4.98714596e-02]
   [ 8.52411240e-02 -1.28393635e-01 -8.55191350e-02  1.10646643e-01
    -2.71074250e-02  2.10324660e-01]]

  [[ 1.97099343e-01 -2.54947871e-01  1.11994907e-01 -9.28855613e-02
    -8.16650316e-02  1.73140228e-01]
   [-2.50940975e-02 -2.41602048e-01 -9.40056965e-02  6.91445246e-02
     1.23876043e-01 -1.47139400e-01]
   [-1.84167773e-01  5.73881827e-02  4.28882502e-02  1.96796536e-01
     8.89458954e-02  2.47477651e-01]]

  [[ 3.11444849e-02 -4.98426259e-02  2.03773886e-01 -1.37802482e-01
     1.72518298e-01 -6.63007498e-02]
   [-5.57391718e-02 -1.21396810e-01  1.89792842e-01 -4.14854549e-02
     2.60503024e-01 -9.30611491e-02]
   [-1.89272333e-02 -6.90712705e-02  3.68651375e-02 -2.56863125e-02
     1.20687477e-01 -1.63544968e-01]]

  [[ 2.28867486e-01 -1.42940253e-01  2.55914731e-03 -1.45753473e-01
    -2.08679006e-01 -1.75587609e-01]
   [-1.48271859e-01 -1.58768818e-01  5.19466363e-02 -2.49966830e-01
     1.20302401e-01 -1.17692113e-01]
   [-2.23940581e-01  5.77643812e-02  1.42280713e-01 -1.38082646e-03
     2.73368079e-02  1.03567168e-02]]

  [[ 1.69293910e-01 -2.21849322e-01  1.67175502e-01  1.49168940e-02
    -1.75162360e-01  8.62972215e-02]
   [-1.76124245e-01  6.79982752e-02  2.22346112e-01  7.02420026e-02
    -1.12676315e-01  3.48445057e-04]
   [-1.43691808e-01  4.11411263e-02 -1.32982239e-01  5.53333201e-02
    -1.66438073e-01  1.59979105e-01]]]]
baseline/conv2d/bias:0
(6,)
[ 0.02294411  0.00928772  0.04198164  0.04343577 -0.02033703  0.04175283]
baseline/batch_normalization/gamma:0
(6,)
[0.7298732  0.8223157  0.69324785 1.0423462  0.51401526 0.7601784 ]
baseline/batch_normalization/beta:0
(6,)
[-0.33242232 -0.25572252 -0.24497758 -0.43329534 -0.2238587  -0.29930124]
baseline/dense/kernel:0
(1536, 128)
[[-1.96499169e-01  4.13272791e-02  2.33971570e-02 -7.43308291e-02
  -5.14348857e-02 -5.82244210e-02  1.11721806e-01  5.74258268e-02
   1.79170594e-02 -2.11463477e-02 -9.97324474e-03  3.69889624e-02
   4.17234711e-02 -2.08537118e-03 -7.59001225e-02 -9.76824984e-02
  -5.65252081e-02 -1.91172631e-03  2.82483827e-02  2.61553917e-02
  -2.37960219e-02 -1.62882313e-01  1.61474254e-02 -3.25536467e-02
   2.04028841e-02 -3.83765139e-02  1.05381869e-02 -1.47778034e-01
  -2.30826046e-02  5.70677035e-02  8.12721997e-02 -5.70589006e-02
  -1.09408507e-02 -1.45633761e-02 -9.59705189e-03 -1.40315909e-02
   4.24887277e-02  4.60882159e-03 -9.13452879e-02  3.80222052e-02
   4.02465761e-02  5.93803711e-02  9.59576853e-03 -6.62200451e-02
   1.78599716e-04 -2.21275669e-02 -7.12669343e-02 -2.34658811e-02
  -4.34967466e-02  3.60398367e-02  1.04673207e-02  1.02615975e-01
   1.11312279e-02  3.55351903e-02  3.66089605e-02 -6.34642914e-02
  -2.59385556e-02  5.40942047e-03 -1.77676193e-02  8.08895566e-03
  -6.79771751e-02 -1.26543954e-01  7.31537938e-02 -3.40176225e-02
  -9.06283781e-02  1.74128097e-02 -8.13109726e-02 -2.60964073e-02
  -2.05810145e-02 -7.16793686e-02 -9.06637833e-02 -4.25638743e-02
  -5.03908321e-02  8.16091746e-02  3.11015826e-02 -1.00164615e-01
  -5.27752787e-02 -1.77044906e-02 -2.45973300e-02  3.68733481e-02
  -6.06638193e-03 -4.33503091e-02 -1.51550010e-01 -4.72647771e-02
  -2.33570952e-02  2.99256351e-02 -4.80183437e-02 -6.65662289e-02
  -1.82036515e-02 -8.35378617e-02  8.53434876e-02 -5.60782664e-02
   4.60393503e-02  1.17384959e-02  8.35364684e-02 -8.98547769e-02
  -8.25279802e-02 -7.76153654e-02 -4.96901991e-03  2.73626782e-02
   1.24650009e-01 -6.18813187e-02 -8.18198472e-02 -2.29707025e-02
  -1.19449571e-02  9.08745527e-02  8.19092318e-02  4.03345861e-02
   9.16783959e-02 -1.38618633e-01 -2.20047589e-02  1.57656074e-02
   3.60632166e-02 -1.92954242e-02  4.52057272e-02  2.90924534e-02
  -6.16233833e-02  1.51822031e-01 -3.13876756e-02 -1.18811196e-02
  -5.67742530e-03  6.12973683e-02  2.67357100e-02  6.58623576e-02
  -6.41063601e-02 -5.29503301e-02 -3.98543179e-02  1.44216949e-02]
 [ 7.76717141e-02 -9.26794577e-03 -1.30273541e-02 -2.41803844e-02
   1.11358494e-01 -1.80299021e-02 -5.49712405e-02  1.14466641e-02
  -8.29388388e-03 -1.12122903e-02 -6.16812967e-02  1.09483615e-01
  -2.84812762e-04  8.75108689e-02 -5.98103143e-02  2.32414138e-02
  -4.20042500e-02 -2.45027710e-02 -1.02178946e-01 -7.91553855e-02
  -4.51888107e-02  5.89456521e-02 -3.55857797e-03 -5.00307418e-02
  -2.93649118e-02  9.14056599e-02 -2.72321478e-02  5.62522449e-02
  -6.16926886e-02 -4.60283235e-02  4.84571588e-04 -6.23028390e-02
  -3.93733345e-02  8.15464556e-02 -4.86105829e-02 -1.09396363e-02
   1.98474824e-02  8.02474245e-02 -9.81411859e-02 -1.41345290e-02
  -2.57683750e-02  1.84249263e-02  1.02834150e-01 -1.99680794e-02
   4.12749276e-02  1.08127855e-02 -8.30537751e-02 -5.17812446e-02
  -5.45049645e-03 -7.29331467e-03 -5.38861454e-02  1.50799863e-02
  -2.69760634e-03 -3.85210849e-04 -4.46031354e-02 -4.66695912e-02
  -1.48559455e-02 -1.28874956e-02  1.17213717e-02 -4.39820625e-02
  -5.74945547e-02 -9.72324163e-02 -3.95830572e-02  4.40371148e-02
  -4.27392311e-03  3.03761903e-02 -6.81900084e-02  1.02695681e-01
  -2.64148489e-02 -3.45052630e-02  2.14685816e-02 -5.15664183e-02
  -1.81641877e-02 -7.52031580e-02  1.49038900e-02 -6.95173591e-02
   1.59844141e-02 -9.00370330e-02  5.35583869e-02 -5.37150502e-02
  -5.25542498e-02 -1.03146076e-01  6.00764640e-02 -1.91628914e-02
   1.18492553e-02  4.10877354e-03 -3.67143075e-03 -8.65456387e-02
   7.90292546e-02 -6.57770336e-02  7.73821864e-03  2.76359380e-03
   2.55303504e-03  1.10185131e-01  4.92608994e-02  9.53994766e-02
   4.35051434e-02 -2.88767777e-02  2.61814017e-02 -6.71317503e-02
  -5.46147674e-03 -1.87516604e-02  2.66787838e-02  1.97755937e-02
   9.70277935e-03 -5.81322471e-03  2.98627336e-02  2.44326703e-02
  -4.54149768e-02  1.06913835e-01 -6.86511695e-02  2.09133662e-02
   3.40030156e-03 -4.13816422e-02 -5.86453155e-02  6.12628879e-03
  -6.15533628e-02 -6.37517869e-02 -1.54383881e-02 -4.55544442e-02
   1.35496994e-02 -2.84283818e-03 -6.16129562e-02  3.14613506e-02
  -6.39696568e-02 -8.32908154e-02 -1.77051071e-02  2.76035420e-03]
 [-1.00908101e-01  6.00945093e-02 -7.53021566e-03 -2.72633452e-02
  -8.10937211e-02  2.56009307e-02 -3.01609002e-02  2.84633283e-02
  -6.10705130e-02 -1.33804575e-01 -6.83128983e-02 -2.86023971e-02
   1.96200870e-02  1.12313638e-03 -9.41286385e-02  2.14709472e-02
   3.73832174e-02  4.06055897e-02 -5.78949153e-02 -2.46591009e-02
  -1.31124584e-02 -1.87096104e-01 -6.37625009e-02 -1.88975204e-02
   2.38963272e-02  6.40087202e-02  1.83116458e-02  6.28202856e-02
  -1.07997864e-01 -1.07033074e-01 -3.98345776e-02 -1.77427065e-02
  -1.14682568e-02  1.62587035e-02 -5.42560890e-02 -6.74989000e-02
  -5.58094569e-02 -1.28842562e-01 -3.50888297e-02 -3.13969105e-02
  -8.34750384e-02 -2.12640446e-02 -3.61923203e-02  2.86966190e-02
  -3.67689393e-02  8.36405845e-04  3.40019055e-02 -2.92506535e-02
  -1.06782420e-02  2.32389662e-02 -3.30791948e-03  1.81240484e-01
  -4.09098826e-02  2.95956396e-02  1.18006906e-02  1.25949765e-02
   3.05627957e-02  1.08932015e-02 -8.98282230e-02 -1.28748238e-01
  -1.52514568e-02  1.17042661e-01 -1.45715892e-01  3.37631106e-02
   3.70688960e-02  3.60578089e-03  9.27134324e-03 -1.47590280e-01
  -4.36704345e-02  3.10666231e-03  4.96176742e-02  1.14122056e-03
  -3.69246900e-02 -5.32261212e-04  8.27717315e-03  6.62144423e-02
  -5.72035201e-02 -3.45679894e-02 -3.45847779e-03 -6.49660528e-02
  -2.17223093e-01 -2.58316100e-01 -1.22159310e-01  3.98073392e-03
   4.94618230e-02 -6.56323954e-02  3.29313278e-02 -6.48666024e-02
   1.17801450e-01 -2.40628999e-02  3.19477357e-02  3.87668088e-02
   2.87980936e-03  1.15506254e-01 -9.61739570e-02 -1.99006665e-02
   5.39852865e-02 -3.35702486e-02 -5.93089163e-02  4.87895310e-02
  -2.98312455e-02  1.79265011e-02 -3.37087549e-02 -1.01966895e-02
  -4.55914587e-02 -2.86694220e-03 -2.84263045e-02 -1.14802066e-02
   2.50474721e-01 -7.42242634e-02 -3.95938195e-02 -2.21640781e-01
  -5.63336397e-03 -5.59170032e-03 -6.48098513e-02 -3.53769176e-02
   4.71067056e-03 -1.02507748e-01  8.92940685e-02  2.89928019e-02
   5.76378370e-04 -3.39579023e-02 -9.61162075e-02 -1.47566155e-01
  -5.14403358e-02 -6.95663765e-02  1.66832507e-02 -7.87873343e-02]
 [-1.54519185e-01  1.62578616e-02  3.37181352e-02 -6.45654276e-04
  -9.86436307e-02  1.50181288e-02 -2.66849510e-02 -4.49808203e-02
  -2.53826082e-02  6.04091212e-02 -1.08631849e-02  8.69105160e-02
  -4.35076095e-02  1.96606405e-02 -3.29977982e-02  6.20813807e-03
   3.81095707e-02 -4.41221036e-02 -1.05393762e-02 -1.64446048e-02
   2.81696711e-02 -7.46748894e-02 -2.48923413e-02 -8.83679464e-02
  -5.13246506e-02 -2.55535692e-01 -5.25317751e-02 -1.39415950e-01
   2.35041026e-02  1.15320133e-02  1.97514128e-02 -4.54047881e-02
   3.00148055e-02 -2.91411076e-02 -5.54866232e-02  1.11011211e-02
  -6.24382347e-02 -1.45165473e-01  2.76802629e-02 -4.19939086e-02
   4.20243526e-03  1.44914482e-02 -1.00389279e-01  3.94798862e-03
   3.48552801e-02 -1.22527376e-01 -7.04305619e-02 -8.50458294e-02
  -1.91562697e-02  3.96705084e-02 -6.48795143e-02 -5.99248409e-02
   4.25179712e-02 -5.06050214e-02 -2.93734875e-02 -2.72186968e-04
   3.69161405e-02 -1.62204485e-02  6.64441809e-02  1.19328573e-01
  -4.98163188e-03 -5.67403808e-02 -1.14611916e-01 -4.23375852e-02
  -2.63435580e-02 -1.98935017e-01  2.19222382e-02  2.87211649e-02
  -5.67458272e-02 -6.01712652e-02  3.98217998e-02 -1.19331526e-02
  -5.58808073e-02  1.18877977e-01  8.85266997e-03 -3.01215448e-03
  -5.40744178e-02 -6.52666911e-02 -1.06979400e-01  1.14045222e-03
   1.07176997e-01 -1.26594082e-01  1.16944704e-02 -5.35433963e-02
   2.50181053e-02  3.78133506e-02 -5.28273992e-02  8.97097494e-03
   6.58916160e-02 -1.26459158e-03  2.23148856e-02 -2.55501736e-02
   6.66493401e-02 -1.05109870e-01 -6.16984814e-02  3.15596350e-02
  -2.54770555e-02 -2.83962395e-02  7.04899663e-03 -1.79437529e-02
  -1.18692234e-01 -1.94192547e-02 -6.47337586e-02  4.16347869e-02
  -3.17229629e-02 -4.43809964e-02 -4.00860002e-03 -8.23762342e-02
   2.64335964e-02  4.95297015e-02 -9.89255123e-03 -8.95853415e-02
  -3.71074937e-02 -1.79993585e-02 -2.26307288e-02  1.55810229e-02
  -2.79585514e-02 -2.63202488e-02 -7.60434270e-02 -9.52391103e-02
   3.99086624e-02  2.74381936e-02  5.97609580e-02 -5.41573353e-02
  -2.14312598e-02 -1.75494961e-02  2.14841049e-02  5.90972602e-02]
 [-1.35931984e-01 -3.98974493e-02 -2.14137230e-02  5.17786369e-02
  -8.43608677e-02  3.81645896e-02 -4.99195457e-02  9.17866454e-03
   4.37432155e-02  9.91316661e-02  2.92118825e-02  1.69443741e-01
  -3.50141292e-03 -5.78897409e-02 -8.86081085e-02 -4.16375883e-02
  -5.09347431e-02 -5.57573363e-02 -3.92076522e-02  2.11838074e-02
  -3.31636369e-02  4.80559394e-02  4.60931286e-02 -7.79393166e-02
  -2.64941920e-02  1.07982002e-01  3.80731262e-02 -1.98865961e-02
   9.36323963e-03  5.29021434e-02 -2.96016764e-02  1.85878365e-04
   5.48792817e-02  7.80430529e-03 -4.59397286e-02 -6.09849580e-02
   9.97296628e-03 -1.03917755e-01  4.01050448e-02  4.74136360e-02
   1.08398013e-02  2.48885956e-02 -5.11723338e-03  1.65663864e-02
   4.92831357e-02  7.74880797e-02  6.62761405e-02  1.02531455e-01
   1.27963182e-02 -5.10657690e-02  2.33047493e-02  3.04515082e-02
  -5.95468096e-02  4.00395468e-02 -4.81243953e-02 -2.10582800e-02
   1.30806463e-02 -5.57657555e-02 -2.60269314e-01  2.22926009e-02
  -1.30977007e-02 -1.99099645e-01 -1.11123465e-01 -6.01366833e-02
  -2.69457679e-02  6.81998283e-02 -1.39116272e-02 -1.07156672e-01
   4.56337593e-02 -1.10808112e-01  4.39430727e-03 -2.73188502e-02
  -1.34137562e-02  3.05075571e-02  4.98289615e-03  3.20461802e-02
  -5.07189780e-02 -7.13557750e-03 -2.00258017e-01 -7.58479536e-03
   1.53618082e-01 -1.80810332e-01 -3.71042918e-03  3.97119001e-02
   3.49862352e-02 -2.06485480e-01  4.65177326e-03  2.52644774e-02
  -1.75832704e-01 -6.99595083e-04 -3.90500911e-02  4.46364842e-03
  -5.40559702e-02  1.32051364e-01  1.48961945e-02 -5.52949980e-02
  -3.99522260e-02 -1.03636459e-02 -4.15650271e-02 -5.71637191e-02
  -1.35185182e-01  3.69168893e-02  5.77477552e-02 -3.78937670e-03
  -4.11820747e-02 -1.01193696e-01  1.46628087e-02 -3.66859771e-02
  -1.02732576e-01 -1.80981383e-01 -3.01230662e-02 -1.45252630e-01
  -4.71065342e-02 -1.30190013e-03 -6.24067569e-03  8.36693868e-03
   2.55844425e-02 -4.22058068e-02  2.59991795e-01 -3.45858559e-02
  -3.78843956e-02  6.64000586e-02 -1.07425764e-01  2.29999796e-02
   5.45863360e-02  4.02927920e-02 -3.03505249e-02 -1.27355039e-01]
 [ 5.01270182e-02  1.81266908e-02  1.05444286e-02 -5.01450151e-02
   4.18205447e-02 -4.30705659e-02  3.64197306e-02 -1.25869233e-02
   2.80012917e-02 -1.39147043e-02  8.97528231e-02  3.78999151e-02
   6.15473837e-04  1.82940662e-02 -1.41306585e-02  1.32626214e-03
  -6.61012009e-02 -3.81190628e-02  1.35997245e-02  2.82111354e-02
   3.32073942e-02  2.29904056e-02 -8.13559908e-03  1.60142198e-01
   2.22238861e-02  4.34641317e-02  4.40028086e-02  1.35220200e-01
  -1.95434541e-02 -3.42930034e-02  4.07725573e-03 -4.40289127e-03
  -5.79655804e-02  1.15170646e-02  1.16296336e-02 -3.48947085e-02
  -4.48645800e-02  1.62779838e-01 -6.55865893e-02 -5.12997061e-03
  -1.41297933e-02 -3.13350111e-02  1.23929963e-01 -5.02370708e-02
   1.00354087e-02  8.41682255e-02  3.70260398e-03 -8.16042274e-02
  -1.15268333e-02 -3.78420539e-02 -8.41992795e-02  5.28533496e-02
  -1.01204868e-02 -7.91102648e-02 -5.94413914e-02 -8.80640280e-03
   2.46191844e-02 -5.13571315e-02  1.45261392e-01 -2.91541442e-02
  -2.96983533e-02 -9.17478949e-02  2.80591324e-02 -3.91085520e-02
  -6.57532886e-02  3.71963829e-02 -6.59918785e-02  1.75920218e-01
  -8.16666987e-03 -3.79747525e-02  3.06474008e-02 -4.68684807e-02
   2.91200206e-02 -1.17320232e-01 -4.37132665e-04  5.21935336e-02
  -4.38990369e-02 -2.12570187e-02  1.97556894e-02  1.58155728e-02
   1.01460759e-02 -1.59746725e-02  4.18488272e-02 -2.57781781e-02
  -1.30490130e-02  2.41502691e-02 -3.85284573e-02 -1.42832443e-01
   3.50608639e-02  2.07670592e-02  5.13056628e-02 -1.09755648e-02
   4.15549055e-03  5.51581942e-02  4.98661771e-02  6.46234974e-02
  -3.62288952e-02 -5.54575073e-03 -2.55375318e-02 -3.17929909e-02
   9.24644172e-02  2.04223450e-02  2.41394639e-02  6.69322070e-03
  -6.38138726e-02  1.36432964e-02  2.10193731e-02 -1.04087733e-01
   4.06712703e-02  6.18336573e-02 -2.77273413e-02  3.65731865e-02
  -5.99492975e-02  4.43015099e-02 -5.54427765e-02 -5.94729616e-04
  -1.02588184e-01 -1.58508886e-02 -5.68191968e-02  2.32672561e-02
   3.10068130e-02 -4.62297425e-02  8.57115686e-02  3.20726074e-02
   7.16818217e-03 -2.13056598e-02 -5.49896359e-02 -3.51097658e-02]
 [-2.40497068e-01  3.51226926e-02  3.60760763e-02 -2.11230144e-02
   6.09694161e-02  1.42874634e-02  7.71714672e-02  3.40930708e-02
  -4.99769747e-02  1.17254101e-01 -6.10887446e-02 -3.66684273e-02
   1.61141530e-02  3.97864245e-02  6.11434951e-02 -1.74354501e-02
  -2.19122022e-02 -1.12283533e-03  1.89020447e-02  1.98403858e-02
   1.68868154e-02 -5.59102669e-02  6.05705120e-02 -6.29009828e-02
   4.71176654e-02 -4.36349809e-02  1.28593259e-02 -8.70834198e-03
  -5.32599390e-02  1.63502753e-01  3.87714840e-02 -1.56886149e-02
  -2.78141536e-02  5.48864529e-02  6.94419676e-03 -4.14130948e-02
  -6.34305775e-02  8.96151140e-02 -7.52117671e-03 -1.44895902e-02
  -3.74662615e-02 -4.12024967e-02 -2.00807601e-02 -1.87632721e-02
  -2.05594674e-02 -1.14411563e-01  9.98489000e-03 -6.55742874e-03
   4.40588742e-02  6.07845432e-04  3.96859385e-02  1.04772098e-01
   1.12420861e-02 -4.04481702e-02 -1.12597062e-03  2.70038266e-02
  -4.36823964e-02  4.09944542e-02  1.77393034e-02  5.94971552e-02
   4.56233062e-02 -7.76253268e-02  4.99982713e-03 -4.98136431e-02
  -5.70245869e-02  6.33548275e-02 -1.92778278e-02  2.47682333e-02
   3.89158347e-04 -1.94556862e-02 -7.44995028e-02 -2.77267955e-02
  -1.35081578e-02  9.48749557e-02 -4.66076918e-02  9.18769743e-03
  -2.98826024e-02 -5.96646555e-02  5.96977882e-02 -3.85100096e-02
  -2.08184812e-02 -6.50930926e-02 -1.26948848e-01  3.86922508e-02
   6.58437535e-02  1.00997001e-01 -5.91252223e-02 -9.65172052e-02
  -1.17233574e-01 -3.76065709e-02  6.10269569e-02 -4.33540978e-02
   1.58200577e-01 -9.70705152e-02 -8.71609673e-02 -1.76173180e-01
  -3.40834707e-02  2.74717193e-02 -4.05791886e-02  1.17334165e-02
  -3.56085338e-02  3.94431092e-02 -8.67101327e-02  1.53634567e-02
   2.24704351e-02  5.35376295e-02  1.66766364e-02  5.84092699e-02
   2.00925395e-01 -1.24917991e-01  5.81952324e-03  6.66527823e-02
  -3.00409482e-03  3.65924463e-02 -5.59873171e-02  1.36647774e-02
  -6.96548596e-02  5.53446598e-02 -3.57796587e-02 -5.07554598e-02
   3.95941511e-02  3.82983871e-02 -1.73766050e-03  3.56040858e-02
   5.49378246e-02 -3.24000083e-02  4.61204303e-03 -4.11225297e-02]
 [-2.06137151e-02  6.36825487e-02 -2.41076257e-02 -6.65335208e-02
   9.04689804e-02 -5.64196482e-02 -4.91455756e-02  4.62334715e-02
  -6.73322007e-02 -4.53902557e-02 -1.29486881e-02  5.67574520e-03
   5.97602176e-03 -3.04519199e-02  1.43487146e-02 -2.83047580e-03
  -2.10223962e-02 -3.89409363e-02 -5.65132052e-02 -5.74068315e-02
  -2.11631451e-02  6.85813427e-02  4.58941422e-03 -8.32382366e-02
  -1.74079947e-02 -4.79220152e-02  1.46324625e-02 -1.10229038e-01
  -4.23195120e-03 -1.10553123e-01  2.79062260e-02 -5.71685173e-02
   4.58528101e-03 -2.52551716e-02 -1.71490368e-02 -9.20141861e-02
   4.69530597e-02  6.99917972e-02  3.76295386e-04  1.36209875e-02
  -1.03652537e-01  2.59970147e-02 -8.60776082e-02 -2.35648956e-02
  -3.29366922e-02 -6.12472855e-02 -1.98383294e-02 -7.94832557e-02
   5.28213680e-02  5.13867624e-02 -2.52430756e-02 -2.04181001e-02
   4.07584012e-03  1.19764665e-02 -8.08291361e-02  1.33966887e-02
  -3.57220732e-02 -3.24397720e-02  3.12058218e-02 -2.47099120e-02
   1.58924200e-02  5.20238057e-02 -1.46409497e-01 -5.73633499e-02
  -1.60094015e-02  6.10060729e-02  5.19131124e-02  3.78636979e-02
   5.82145825e-02 -1.92762595e-02  5.63836598e-04  5.11891767e-03
   3.53718351e-04 -5.02608716e-02  2.78116185e-02 -3.88960056e-02
   3.36426236e-02  1.88770220e-02  3.70919071e-02 -1.44620463e-02
  -7.63212964e-02 -8.96424130e-02 -1.61271784e-02  1.55194486e-02
  -3.74049619e-02  2.42603347e-02 -1.51100550e-02  3.55770364e-02
   1.06319405e-01 -1.08338883e-02  6.56982586e-02  1.16623323e-02
   1.55908372e-02  6.45063743e-02  8.58172309e-03 -7.62414113e-02
   1.57053899e-02  9.66863707e-03  5.61982431e-02  3.63569148e-02
   9.08428803e-02 -8.83230567e-03 -1.03891250e-02  2.83467565e-02
   5.20407222e-02 -2.57451981e-02 -1.37858791e-02  5.85197611e-03
  -7.15053454e-02 -4.92836386e-02 -3.46494876e-02 -9.11071151e-02
   4.35883477e-02  9.41552687e-03  3.02747283e-02 -5.96399419e-02
   2.41933316e-02 -1.30194038e-01 -5.25843911e-02  2.33902745e-02
  -4.09178026e-02  5.11325225e-02 -1.07147142e-01  5.78038171e-02
   1.52764870e-02 -4.60716151e-02 -2.26510186e-02  1.38957910e-02]
 [-2.52328198e-02  2.45656800e-02 -6.88720495e-02  5.43661267e-02
  -9.03102234e-02 -4.18058969e-02 -9.56043005e-02  2.74985172e-02
   2.74981484e-02  1.13877831e-02 -7.81847239e-02 -6.22235648e-02
   2.35544406e-02 -3.33532429e-04  4.52816673e-02 -7.72041678e-02
   1.95248928e-02 -4.11286019e-02  6.02874681e-02 -2.67771841e-03
   1.85998864e-02 -1.64248765e-01 -6.22384883e-02  6.88330829e-02
  -3.46892849e-02  6.63288832e-02  8.97360221e-03 -7.02758320e-03
  -2.27846634e-02 -9.17969719e-02  3.98252495e-02 -1.04937358e-02
   4.25842702e-02 -2.05108579e-02 -9.34216660e-03  3.22189624e-03
  -3.91654149e-02 -8.23333412e-02  4.99728322e-02  5.22499066e-03
  -1.14722081e-01  7.03271627e-02 -8.50967914e-02  4.42668647e-02
   2.71715801e-02 -1.10516012e-01  3.91359329e-02  7.36785904e-02
   4.04685326e-02 -9.43369232e-03 -7.30704889e-02 -5.64463157e-03
   1.48293972e-02  5.59496656e-02  3.03588435e-02 -1.18771829e-02
  -2.47480208e-03 -5.60118072e-02 -1.01666272e-01 -1.48942918e-01
  -3.03574633e-02  2.88064294e-02 -1.28527805e-01 -2.47328952e-02
  -7.65840039e-02 -3.84852514e-02 -6.33612275e-02 -3.38216051e-02
   4.11986606e-03  8.87107383e-03 -3.75880226e-02 -1.60666034e-02
   6.44615591e-02  2.17147041e-02 -1.63350161e-02  7.60566145e-02
  -3.39673981e-02  1.31984586e-02  8.53822455e-02 -6.87765852e-02
   1.97624415e-02 -1.45510793e-01 -6.46209791e-02 -6.15350828e-02
  -2.90653482e-02 -4.19530645e-02  4.08808179e-02  4.91261156e-03
   6.88326061e-02 -2.80109067e-02 -5.59414700e-02 -3.03347921e-03
   9.48756114e-02 -4.05691080e-02  5.11216782e-02 -2.12615490e-01
  -5.57614677e-02 -2.21713670e-02 -6.85807839e-02 -4.31245826e-02
  -4.14949022e-02  4.31860499e-02 -6.29115105e-02 -1.97644439e-02
  -3.19149792e-02 -2.21858636e-01 -1.50668900e-02 -3.66793089e-02
   1.14850670e-01 -1.24478161e-01  4.40033749e-02 -2.34885201e-01
  -5.55550121e-02 -4.90701236e-02  1.09411497e-02  5.30863032e-02
  -4.84324507e-02 -8.45678598e-02 -3.16653214e-02 -4.61129621e-02
  -6.86614141e-02 -8.98879617e-02 -1.73153561e-02 -1.18720852e-01
  -1.76022742e-02 -2.02180296e-02  1.86149008e-03 -8.50642174e-02]
 [-9.39237177e-02 -1.73440948e-02  2.12292303e-03 -3.23972031e-02
  -1.77855670e-01  3.84998433e-02 -3.65337245e-02 -2.50475053e-02
  -2.17761006e-02  1.21927887e-01  4.87692319e-02  5.23406733e-03
  -2.32381979e-03 -7.92223290e-02 -7.50580430e-02  5.06986789e-02
  -9.11041349e-03  2.47748103e-02 -3.43915820e-02 -3.14485803e-02
   2.85001565e-02  6.46827295e-02 -3.42034213e-02 -9.13763866e-02
  -6.42464831e-02  5.40400073e-02 -8.69684070e-02 -7.41587505e-02
   1.36248827e-01  1.03817858e-01  1.00325942e-02  3.00375950e-02
  -7.48882890e-02 -5.44695482e-02 -3.77341814e-04  1.17297815e-02
   4.50621955e-02 -7.51777813e-02  1.64697822e-02  7.16637522e-02
   8.87631774e-02 -1.66204032e-02  5.82147241e-02  5.03844135e-02
  -1.08941989e-02 -2.32672080e-01  3.18297781e-02  2.34262347e-02
  -4.10925224e-02  3.12374923e-02 -6.19835034e-03  1.18565165e-01
  -4.07642722e-02 -1.02208890e-01 -1.65991038e-02 -2.86875591e-02
   3.05625573e-02  4.61211316e-02 -1.52809471e-01 -1.04790526e-02
  -5.76494746e-02 -1.82749629e-02 -4.59223241e-02 -2.99572200e-03
  -6.88635036e-02  1.38634546e-02  6.91522006e-03 -9.83913895e-03
   2.08854601e-02  4.16159816e-02 -2.43375637e-02 -3.03897057e-02
  -1.17467204e-02  1.17524341e-01 -3.52696441e-02 -1.95770264e-02
  -5.44311665e-02  1.73238385e-02 -1.06074370e-03  1.68545321e-02
   2.00102314e-01 -3.71379480e-02  3.18974741e-02  3.72549742e-02
  -5.40105551e-02  5.70989773e-02  4.25026752e-02 -2.27572862e-02
   1.22174807e-01  3.04528754e-02 -1.49068519e-01  4.03428115e-02
   8.80268365e-02  3.01070213e-02  1.85065195e-02  2.79234797e-02
   4.90680188e-02  1.48759633e-01 -7.39583448e-02 -2.68386845e-02
  -8.97106379e-02 -2.27580890e-02 -5.24112321e-02 -1.64170861e-02
   4.20541503e-04 -1.70803621e-01 -9.99281779e-02  1.68018043e-02
  -3.33865695e-02 -6.88921362e-02 -6.62176609e-02 -1.54137770e-02
   2.44313106e-02 -2.65235417e-02 -2.57041976e-02  3.89618725e-02
  -1.82978548e-02  5.22578917e-02 -4.49680388e-02 -3.51759531e-02
   3.59741747e-02  6.38914853e-02  7.11184880e-03  7.23627284e-02
  -1.76758431e-02  2.44833734e-02  3.86241563e-02  1.20554842e-01]
 [-4.26773503e-02 -9.45671871e-02 -4.67876606e-02 -5.62391877e-02
  -1.98304355e-02 -2.37297248e-02  2.07846612e-02 -3.92010882e-02
  -1.29272267e-02  2.86621903e-03 -4.97875586e-02 -6.02110438e-02
   4.25980203e-02 -1.50474329e-02  4.74470630e-02  6.07909970e-02
  -1.56909134e-02 -2.78764348e-02 -1.29506309e-02  1.25341322e-02
  -2.19542738e-02 -3.87376873e-04 -3.77400294e-02  1.69145353e-02
  -2.97652707e-02  3.93257961e-02  4.90655610e-03 -1.52498698e-02
   1.06407009e-01  1.13570560e-02 -6.34298474e-02 -1.37773743e-02
  -1.78643707e-02  4.82538715e-03 -4.72592898e-02 -7.28515387e-02
   3.56074274e-02 -6.14144690e-02 -2.35213805e-02  9.74260643e-02
   2.72717401e-02  2.41945591e-02 -1.53522557e-02  3.68853100e-02
  -2.91432552e-02  1.38797611e-01 -3.12709622e-02  4.38477285e-02
   1.58659965e-02  5.04506901e-02  2.20203288e-02  6.54573143e-02
  -6.12445027e-02 -5.55951037e-02  3.86498235e-02  1.59584731e-02
  -1.29368799e-02  3.40581164e-02 -5.03385700e-02 -4.85413447e-02
   4.57362756e-02 -9.64539945e-02 -3.63423266e-02 -6.39596283e-02
  -3.30758393e-02  1.25774443e-01 -9.90582723e-03 -1.09895565e-01
   6.33043125e-02 -1.04980275e-01 -1.79425953e-03 -5.51438183e-02
  -1.50159951e-02 -5.44282645e-02  2.97415163e-02 -1.78830698e-02
  -5.29990681e-02  2.15932000e-02 -5.85818253e-02 -3.99451852e-02
   3.71934064e-02 -1.04256235e-01 -1.36278018e-01  2.14653928e-02
   2.22086664e-02 -2.13040829e-01 -3.15566128e-03 -3.39954980e-02
  -1.08541243e-01  4.02532285e-03 -2.14243494e-02  2.00461932e-02
  -1.32206768e-01  1.91821307e-01 -4.94099781e-02 -1.37775391e-01
   6.61437884e-02 -1.94937102e-02 -5.33326007e-02  2.28825258e-03
  -4.21572886e-02  5.42087778e-02  4.40439805e-02 -2.09001917e-02
  -3.90619934e-02 -1.33702651e-01  1.93088669e-02 -8.95575248e-03
  -5.50951511e-02 -2.18535215e-01 -5.03035598e-02 -4.07019258e-02
   2.74894703e-02 -6.64252117e-02 -1.91865265e-02  3.90889570e-02
  -4.72682305e-02  2.51070671e-02  1.01323694e-01  1.05143413e-02
  -5.51950149e-02 -8.92456993e-03  6.19510449e-02  4.63372134e-02
   4.08297926e-02 -3.64515465e-03  3.53885768e-03 -9.67622995e-02]
 [-3.58772427e-01 -4.78704609e-02  5.18861748e-02 -7.64447544e-03
  -1.01629712e-01 -6.43769652e-02 -2.69137453e-02  1.52088013e-02
  -4.38586883e-02  1.31274834e-01 -3.82407308e-02  3.61944959e-02
  -1.84212029e-02 -5.55199943e-02 -5.89285493e-02 -5.32188416e-02
  -1.42208524e-02 -1.22713139e-02 -5.69224656e-02  1.51993036e-02
  -6.03857897e-02  6.02261163e-02 -6.05413839e-02 -6.36221543e-02
  -7.09097609e-02 -1.03965737e-01  2.93137841e-02  1.09299542e-02
   1.80627197e-01  9.28507969e-02  8.53576288e-02 -2.03875732e-02
   2.51709595e-02 -1.23838102e-02 -1.24475192e-02 -6.85567707e-02
  -1.84972323e-02 -8.75264183e-02 -3.27105410e-02  6.01608958e-03
   3.57340574e-02 -1.20944818e-02  1.31661922e-01 -3.87131907e-02
   3.75909135e-02 -1.81094065e-01 -3.28152329e-02 -3.46569717e-02
   4.05099839e-02  4.74486537e-02 -2.13233214e-02  1.25572518e-01
  -3.92004522e-03  3.49450372e-02  3.60385813e-02  1.82332546e-02
  -3.19264047e-02 -3.89292254e-04  1.21013179e-01  1.12331733e-01
  -4.17628810e-02 -6.29031137e-02  2.06393767e-02 -4.86076996e-02
   3.39889489e-02  3.46087180e-02  1.69383697e-02  3.30970660e-02
  -1.69450492e-02 -2.64537558e-02  2.51980927e-02  3.96771356e-03
  -1.56787992e-01  1.37382597e-01 -1.52494954e-02  3.58715244e-02
   3.61265019e-02 -3.52755636e-02 -6.85840696e-02 -2.57186890e-02
   4.33359295e-02  2.64710654e-02  1.13830462e-01 -2.89585795e-02
   2.50312332e-02  9.78219956e-02 -4.62797396e-02 -1.25733137e-01
   2.13213265e-02 -5.99447158e-05 -6.43929765e-02 -1.53228873e-03
   1.58144087e-01 -3.30102742e-01 -2.45955691e-01  1.42586201e-01
  -2.65051574e-01 -2.37413481e-01 -3.38160656e-02 -1.87852178e-02
  -3.39643508e-02  5.69693558e-03 -4.97505367e-02  2.83483192e-02
  -3.47621031e-02  2.50661913e-02 -1.00945815e-01 -9.35313478e-03
   4.10289839e-02  2.24933699e-01 -8.25201813e-03  7.33564422e-02
  -3.25145535e-02  6.07377477e-03 -9.53011494e-03 -3.15362029e-02
  -2.88929860e-03 -2.25245021e-02 -1.73528418e-01 -4.22572233e-02
   4.17667255e-02  2.69889794e-02 -5.25269993e-02  9.39299464e-02
   7.13056922e-02 -2.18489952e-02  2.04856694e-02 -7.41347298e-02]
 [-2.29429111e-01 -7.48728588e-02 -6.39127120e-02 -9.79654491e-03
  -8.85667354e-02  9.85574722e-03  2.91525256e-02  6.69446122e-03
  -5.62958159e-02  2.51324638e-03 -3.01179308e-02 -1.22211605e-01
  -5.92529662e-02 -4.99262400e-02 -5.06466776e-02  4.52448167e-02
  -6.66925907e-02 -3.51187289e-02 -4.53209803e-02  4.12273780e-02
  -4.60272692e-02 -1.48766592e-01  2.31420435e-02 -2.06264928e-02
   1.92388669e-02 -7.43883848e-02 -2.88560092e-02  5.91652393e-02
   3.36823538e-02  8.88746902e-02  1.11269757e-01 -7.52241164e-02
  -1.75600108e-02  5.24206944e-02  2.50267852e-02  5.28730489e-02
  -4.71824221e-02 -5.58857135e-02  2.09388435e-02  1.21965133e-01
   4.65905555e-02 -4.63612340e-02  6.38409480e-02 -2.20378842e-02
   1.40111090e-03 -4.11985815e-02  7.08735138e-02 -4.71611544e-02
  -4.02351096e-02  2.59398893e-02 -5.64983599e-02  1.12899639e-01
   1.02256518e-02 -1.38881177e-01  8.23202543e-03  2.93481676e-03
   6.90792948e-02  4.86999080e-02 -7.91099891e-02 -8.32894519e-02
   1.62600484e-02 -4.76709455e-02  1.49947628e-01 -5.53997532e-02
   4.71881079e-03  9.89766568e-02  8.03680811e-03 -1.64080523e-02
  -5.76364584e-02 -1.04686953e-02 -4.84083444e-02  4.91745174e-02
  -3.25170793e-02  1.32652268e-01 -3.22436094e-02  1.60440989e-02
  -4.22735848e-02 -5.75523451e-03 -6.21800274e-02  2.12544054e-02
  -1.47984140e-02 -1.47646526e-03 -1.55400380e-01 -2.16939263e-02
   6.58944994e-02 -1.05908871e-01 -2.25694454e-03 -4.91775647e-02
  -1.12192489e-01 -3.26235518e-02  1.08095363e-01  9.10217501e-03
   8.48618448e-02 -2.45801285e-02  1.83887202e-02 -1.67941317e-01
  -5.47123589e-02 -7.12845773e-02 -4.11982695e-03 -5.82749657e-02
  -9.35952067e-02 -3.22917253e-02  3.09243035e-02  3.30275223e-02
   5.01847938e-02  9.44282636e-02  4.94562797e-02 -6.37769917e-05
   1.62859872e-01 -7.73977116e-02  2.84417327e-02  2.94804182e-02
   3.60684320e-02 -4.74432148e-02 -1.58350337e-02 -3.77464592e-02
  -4.35443893e-02  4.28177267e-02 -4.26590554e-02  4.99599762e-02
  -4.21581902e-02  4.33025658e-02  1.71220191e-02 -4.92610112e-02
  -2.59032063e-02  1.04312664e-02  1.30800137e-04 -1.38837218e-01]
 [-6.59553660e-03 -6.99050864e-03 -1.14524420e-02 -3.16261896e-03
   2.23404448e-03 -6.40843138e-02 -1.04003280e-01  8.49092100e-03
  -5.78834303e-02 -6.08242303e-02 -4.21976335e-02  9.28123891e-02
  -4.55634901e-03  1.91580895e-02 -4.13616523e-02 -6.79800287e-02
  -5.61489984e-02 -2.36765444e-02 -6.48844689e-02 -5.35551608e-02
   3.01078092e-02  1.38058260e-01 -3.26494463e-02 -7.08244070e-02
  -3.47807556e-02 -9.09165200e-03 -5.47504053e-02 -1.01955079e-01
   1.27838895e-01 -4.85984385e-02 -5.12501709e-02 -6.59555867e-02
   3.88031974e-02 -3.88441421e-02  6.05167169e-03 -3.04084141e-02
   4.67760004e-02  1.23704955e-01  2.73986384e-02 -7.83909038e-02
  -3.20998058e-02 -5.40895425e-02  1.88057180e-02  2.10792907e-02
  -5.79952728e-03  2.02622116e-02 -3.66691537e-02 -9.30464268e-02
  -1.34366630e-02 -5.74182570e-02  3.26559432e-02 -2.02661529e-02
  -1.38380649e-02 -7.96668231e-03 -8.00547823e-02 -6.16158396e-02
  -6.56789029e-03  2.18510348e-02 -6.92600384e-02 -4.14521545e-02
   2.93005891e-02  1.26847997e-01 -1.49821892e-01 -1.91547088e-02
  -4.80520986e-02  4.10330370e-02  5.36532626e-02  8.23260937e-03
  -1.73441041e-02 -1.55151123e-02 -5.96144535e-02 -3.23516987e-02
  -7.24084750e-02 -1.14422049e-02  6.14548894e-03 -1.38797490e-02
  -6.05072007e-02  2.75227036e-02  8.48366320e-02  2.86709387e-02
  -4.07072566e-02 -1.15820736e-01  6.84248954e-02  1.95344016e-02
  -5.06912358e-02  6.38557151e-02  7.08003994e-03 -1.47755099e-02
   5.36431782e-02 -2.29056757e-02 -4.14728336e-02 -3.26646306e-02
   3.97487432e-02  5.81790023e-02  8.19346756e-02 -3.27985995e-02
   5.38445339e-02  3.70943025e-02 -3.54750678e-02  1.83041170e-02
  -5.84527440e-02  6.49303524e-03  6.22981414e-02  2.42481213e-02
  -1.85249522e-02 -5.56577332e-02  5.54337129e-02  2.75984704e-02
  -7.56899938e-02 -9.88491699e-02 -5.36285825e-02  2.10299762e-03
   1.30911814e-02 -1.24905296e-02 -6.44739270e-02 -3.02596353e-02
   4.84035015e-02 -6.04692139e-02 -1.25962403e-02 -4.77699097e-03
  -2.33046198e-03  6.03087470e-02  1.16971415e-02  2.23725550e-02
  -3.63038331e-02 -3.49987783e-02 -6.54880032e-02 -3.06949671e-02]
 [-3.62654589e-02  3.94395031e-02  3.79166715e-02  2.73043495e-02
  -1.40194386e-01  1.83254927e-02  3.39326188e-02 -5.59972003e-02
   1.81743167e-02  9.10997093e-02 -1.63290109e-02  6.59368783e-02
   5.54357283e-02 -5.97169846e-02 -3.83750722e-02 -2.76455227e-02
  -4.62360717e-02 -5.29438332e-02 -1.08350674e-02 -4.65555862e-03
  -6.34084120e-02  7.04974607e-02 -1.81358412e-03 -3.05027538e-03
   4.45987843e-02 -1.34288818e-02 -7.47357309e-02 -1.66677490e-01
   4.94076498e-02 -2.62194008e-01  1.00364788e-02  1.83608066e-02
  -3.48617397e-02 -1.67103969e-02 -1.16722463e-02 -8.59234855e-02
  -4.63464186e-02 -6.05000779e-02  3.90348770e-02 -1.35550916e-01
  -8.87432098e-02 -2.15037633e-02 -1.43062010e-01  2.08373535e-02
   1.81573238e-02 -3.36344093e-02 -5.75735746e-03 -7.08715394e-02
   9.73823108e-03 -3.64451185e-02 -2.40689386e-02 -1.22830451e-01
  -1.87498499e-02  6.27459884e-02 -6.48876876e-02  4.67690304e-02
   2.52076965e-02 -2.31819618e-02 -1.04215890e-01 -5.85832121e-03
   5.89569174e-02  7.35854134e-02 -1.70989469e-01 -6.14636317e-02
  -5.06279655e-02 -1.17418200e-01  4.81268615e-02 -2.97701936e-02
  -8.00871029e-02  1.25243077e-02  4.00485173e-02 -3.37406844e-02
   5.15869744e-02 -5.22399731e-02  5.12672216e-03  9.38440561e-02
  -5.05679362e-02 -4.02498879e-02 -3.27931270e-02  2.00136960e-03
  -5.70244566e-02 -1.57699689e-01  3.68544161e-02  4.42895666e-03
   3.06137688e-02  3.11353840e-02  2.43470315e-02 -9.79907624e-03
   5.66169135e-02 -5.58157393e-04 -1.31821677e-01  2.63779871e-02
   5.14420234e-02 -7.30520561e-02  2.91382615e-02 -3.31005603e-02
  -7.94500038e-02  1.29854558e-02  3.55694517e-02 -6.27567023e-02
  -4.59235087e-02 -5.91751076e-02 -6.32764772e-02  8.82669073e-03
   5.05604595e-02 -2.06304014e-01 -7.92291164e-02  2.95175407e-02
   2.20817491e-01 -4.49865311e-03 -5.90308681e-02 -6.34296462e-02
   2.58249859e-03 -3.20964269e-02 -2.49526128e-02  2.74658501e-02
  -3.45704099e-03 -2.62044799e-02 -5.16713820e-02  3.46142575e-02
   3.44267972e-02  5.63530251e-03 -4.21208739e-02  4.53875214e-02
   1.40726632e-02  3.92699391e-02 -6.91117421e-02  1.08541315e-03]
 [-1.18844204e-01 -7.42957219e-02 -3.55486795e-02  3.03891823e-02
  -4.12402786e-02 -1.85126637e-03 -8.11450705e-02  1.15817077e-02
   2.19146851e-02  1.05908804e-01  2.88542137e-02 -1.14532989e-02
  -5.61566129e-02  1.59153176e-04 -4.27875435e-03 -3.11708753e-03
  -2.13578902e-02 -2.20757071e-02 -4.48459499e-02 -4.55529429e-03
  -2.19784658e-02 -8.15128461e-02 -5.18300347e-02 -1.38255283e-01
  -5.81427999e-02 -7.97068235e-03  7.44924240e-04 -1.48945808e-01
   5.91982761e-03  1.18909575e-01 -7.01693147e-02  1.36223054e-02
   3.72144915e-02  5.61282644e-03 -1.02127865e-02 -2.29570027e-02
  -4.16154191e-02  2.67290487e-03 -6.19526058e-02  1.04353927e-01
   6.42430335e-02 -1.04608357e-01  5.80241121e-02 -1.69153269e-02
   6.60287356e-03 -2.55416274e-01  2.71501560e-02 -5.28991632e-02
  -4.66442183e-02 -6.44243807e-02  2.66277008e-02  6.52433559e-02
   2.26508584e-02  5.62874787e-03 -1.97940916e-02 -1.25426978e-01
  -1.05051585e-02  3.61695848e-02 -4.76060854e-03  1.91746011e-01
   3.28959674e-02  7.26209432e-02  3.06329243e-02 -4.00682315e-02
  -1.57738535e-03  6.37287125e-02  7.10102022e-02  4.34147986e-03
   2.28366256e-02 -9.79663711e-03  2.44055483e-02  3.95706035e-02
   6.76857233e-02  3.33933420e-02 -5.58799356e-02 -1.91925801e-02
  -1.38355829e-02  8.25964659e-03  9.47771519e-02 -6.00555576e-02
   5.26851006e-02  1.29331768e-01  6.90269694e-02  2.44071223e-02
   2.70629476e-04  4.03284356e-02 -4.90245558e-02  8.47476535e-03
  -4.58747335e-02 -3.03533971e-02  6.33220449e-02 -4.84605245e-02
   9.54051763e-02 -1.01948634e-01  4.84980531e-02 -4.73106988e-02
   2.51678098e-02 -9.37259719e-02 -7.19591156e-02 -4.78538163e-02
  -8.06648359e-02 -6.67515546e-02 -1.57811344e-02 -2.96826959e-02
  -3.27723101e-02 -3.96075696e-02  1.31589603e-02 -5.16670235e-02
   5.74601814e-03 -2.66324375e-02  4.60526012e-02  5.18082008e-02
   5.62234819e-02 -5.10567836e-02  4.02208902e-02 -3.55762094e-02
   2.01788507e-02  2.26546712e-02 -7.33254328e-02  6.47788793e-02
  -6.19355924e-02  2.37574335e-02  1.48053005e-01  9.77426395e-02
  -3.13675478e-02 -3.58763486e-02  3.41346557e-03  1.51831612e-01]
 [ 3.38243768e-02 -2.03317553e-02 -4.86372970e-02  4.16061841e-02
  -5.93928546e-02  4.62979078e-02  4.85808477e-02 -2.35745329e-02
   1.74918436e-02  4.49420810e-02 -4.38421406e-03  4.61384431e-02
  -4.83685825e-03  1.18004372e-02 -2.29671169e-02  2.64080390e-02
   2.52073258e-02  4.77590635e-02  6.06348664e-02  8.66797194e-03
  -1.34967156e-02  1.24998214e-02  4.66497062e-04 -4.65916563e-03
   1.27451560e-02  4.39217426e-02 -3.00744059e-03 -1.51541963e-01
   1.75437331e-02 -9.92226694e-03 -7.35019445e-02 -1.63815878e-02
   2.26537455e-02  2.51213238e-02 -4.85156178e-02 -5.80439791e-02
   2.98404451e-02 -1.59233697e-02 -6.59173448e-03  5.48782945e-02
  -1.01649962e-01 -1.19875940e-02 -1.88314185e-01 -5.73770851e-02
  -1.48876440e-02  3.92506719e-02 -5.59482202e-02 -4.36589941e-02
   1.66066375e-03  4.67883535e-02  1.15442229e-03  2.97047067e-02
   2.15239562e-02 -6.90191165e-02 -5.44517711e-02 -1.39930833e-03
  -2.62440983e-02  4.15997058e-02  2.13847328e-02 -1.50696456e-01
  -6.02114834e-02 -2.07791209e-01  3.58261075e-03  1.14786886e-02
   2.31960714e-02  1.52726509e-02  3.11348066e-02 -1.12658814e-01
   6.59184232e-02 -6.89784884e-02  1.60508826e-02  1.73016414e-02
   2.15412378e-02 -1.22024473e-02 -6.22376427e-02 -7.50082433e-02
  -4.89851609e-02 -1.93671081e-02  8.66262764e-02  4.65318859e-02
  -1.41907241e-02 -1.68084085e-01 -5.34590222e-02 -1.26963640e-02
   2.04072930e-02 -2.39712000e-01 -6.13209940e-02 -5.05118072e-02
   4.01896611e-02 -6.09554462e-02 -3.21157761e-02 -6.10025562e-02
  -1.46064460e-01  2.85967082e-01  3.58001105e-02 -1.71164479e-02
   9.92013365e-02 -9.30553451e-02  5.07308031e-03  5.27334865e-03
   6.24485053e-02 -3.76815759e-02  7.61576071e-02 -4.12192494e-02
   5.29772416e-02 -2.11501300e-01  1.73418187e-02 -1.09256893e-01
  -1.26111805e-01 -2.63788790e-01 -2.37925798e-02 -1.69500820e-02
  -4.97379713e-02 -5.35463020e-02 -1.67105757e-02  2.56310776e-02
  -1.54816722e-02 -2.04343628e-02  8.79307240e-02 -2.45397706e-02
   1.21435737e-02 -8.41226131e-02 -5.23731261e-02 -3.74789350e-02
   1.62284151e-02 -4.31164051e-04 -2.48689931e-02  6.15235902e-02]
 [-3.25910240e-01 -9.30356160e-02 -4.24890742e-02  6.78647019e-04
   4.54006083e-02  2.57814508e-02 -1.21297222e-02 -8.86464026e-03
   2.65701599e-02 -6.73252717e-02 -4.23988439e-02 -2.88543850e-02
  -1.54394796e-02 -1.29648289e-02 -1.05543993e-01 -4.74250354e-02
   9.06476285e-03  2.89674532e-02 -4.63842116e-02  8.06094930e-02
  -6.94265962e-02  3.49888243e-02 -7.44697675e-02 -4.99269366e-02
   6.43526465e-02  6.14884943e-02  9.45092514e-02  1.64339971e-02
   2.46041510e-02 -5.65176159e-02  1.05212200e-02  2.91663073e-02
   3.81648801e-02  3.76462983e-03 -8.91993120e-02 -2.06348002e-02
   2.41914149e-02 -6.89928234e-02  1.39190359e-02 -1.23656439e-02
   7.00874552e-02 -3.06066573e-02  1.54555261e-01  3.31632271e-02
   2.02244464e-02 -1.01572528e-01 -2.52548270e-02 -3.13873403e-02
  -5.32028172e-03 -4.99825366e-02 -5.84785128e-03 -3.54905725e-02
   2.08853874e-02 -1.59592152e-01  3.33621055e-02 -3.69431004e-02
   2.54464019e-02 -5.25830761e-02  7.16908053e-02  7.22585395e-02
  -5.77724651e-02 -1.24159187e-01  4.42610979e-02 -3.75548117e-02
  -2.87055015e-03 -8.27046856e-02 -7.58520737e-02  5.33657148e-02
  -1.24720909e-01  1.49366725e-02 -3.28138284e-02  2.61808727e-02
  -5.42000942e-02  1.07384503e-01  9.46816057e-03  1.38413021e-02
  -4.94348966e-02 -6.57103136e-02 -9.75812897e-02 -9.13362578e-03
   2.56021135e-02 -1.57244168e-02  2.03957483e-02 -4.08792943e-02
  -3.17156613e-02  1.51137719e-02 -5.07071950e-02 -3.98439243e-02
   1.96728017e-02 -6.15753680e-02  6.19449988e-02  1.84170064e-02
   1.56282276e-01 -2.66472220e-01  9.94955283e-03  2.58113872e-02
  -2.50906974e-01 -2.07524467e-02 -3.72965485e-02  1.50038712e-02
  -1.52623907e-01  4.50409837e-02 -2.92691104e-02  2.97662094e-02
  -1.43923014e-02 -3.98689806e-02 -1.39725745e-01  5.24403304e-02
  -3.89458723e-02  8.25984702e-02 -5.26106805e-02  8.86223912e-02
   1.63507648e-02 -6.33227229e-02 -5.98593317e-02 -3.28254444e-03
   6.45500142e-03  1.22558556e-01 -1.28861859e-01 -2.78172009e-02
   7.49319345e-02 -1.39732555e-01 -3.01828198e-02  1.25557899e-01
   1.71449929e-02  1.93228889e-02  9.01431665e-02  4.64260168e-02]
 [-2.01094940e-01 -1.05062120e-01  2.49583237e-02  6.50528003e-04
  -6.41767830e-02 -5.35992682e-02  1.56750269e-02 -1.09252352e-02
  -5.45825344e-04 -5.92208356e-02 -1.12027116e-01 -1.24112718e-01
  -2.22535469e-02  5.77138690e-03  1.23556908e-02 -1.96700282e-02
  -5.64712435e-02 -6.15750737e-02  5.35857119e-03  4.28571329e-02
   2.99474262e-02 -1.01293221e-01  2.03582149e-05 -5.76183051e-02
   1.15020107e-02  8.38448331e-02 -5.79551496e-02 -3.19124311e-02
  -1.63158327e-01  8.24403688e-02  2.67629884e-02 -2.05129641e-03
  -3.53512913e-02 -1.73917953e-02 -9.67587112e-04  3.72536518e-02
  -2.16686409e-02  5.03570726e-03 -2.02619359e-02 -9.71275568e-03
  -9.18873399e-03 -3.33942771e-02  5.19020967e-02 -5.40553890e-02
   3.95564809e-02 -5.01236692e-02  6.47596046e-02  5.90864345e-02
  -1.44922696e-02 -5.37849031e-02  4.95272279e-02  1.41816854e-01
   6.39830669e-03 -6.13708198e-02  3.27175073e-02  7.83389155e-03
  -4.36035357e-02 -5.97809739e-02 -2.77349222e-02  1.03795573e-01
   1.59857832e-02 -1.97513755e-02  1.08071879e-01  3.50218154e-02
  -2.36192737e-02  7.02408282e-03  9.23437998e-02 -1.72774792e-02
  -4.27818741e-04 -7.83185959e-02  1.46140279e-02 -2.89373379e-02
   4.51189885e-03  1.00263402e-01 -2.04818528e-02  1.98290427e-03
   6.92790316e-04  4.51159924e-02 -1.05448775e-01 -2.73496769e-02
  -1.50896460e-01 -4.38067829e-03 -8.63515213e-02  4.79537956e-02
   4.78090905e-02 -8.63842517e-02  1.88919937e-03 -6.18298166e-02
  -1.56198233e-01 -5.26785553e-02  1.95045713e-02 -2.84171291e-02
   5.83977811e-03 -2.22882014e-02 -1.09717241e-02  3.65087129e-02
  -6.55305386e-02 -1.90603491e-02 -3.21311168e-02  2.88802069e-02
   9.85049158e-02 -5.70718721e-02  3.56698036e-02 -3.35966200e-02
   1.67742129e-02  9.81348306e-02  1.42866215e-02  3.32468227e-02
  -1.31108030e-03 -8.31435770e-02 -7.37560689e-02  1.91333685e-02
  -2.32603122e-02 -5.25099635e-02 -4.68880078e-03  3.65005210e-02
  -1.91536709e-03  6.44592270e-02  3.87004018e-02 -2.06175447e-02
  -3.76004018e-02  3.78300883e-02 -1.30799962e-02 -1.04046851e-01
   5.12445113e-03  4.97301295e-02 -3.32094170e-02 -1.42669886e-01]
 [-1.07585117e-02  5.42214476e-02 -1.99412601e-03 -4.62157801e-02
   9.15952027e-02  3.45906289e-03  1.82780270e-02  4.68227975e-02
   4.52319272e-02 -2.45838221e-02  3.63178030e-02  5.40605187e-02
   3.20890395e-05  2.52111666e-02  4.19170186e-02 -3.10846674e-03
  -4.42724153e-02 -5.87003455e-02 -5.50930686e-02  6.46681478e-03
   4.28856490e-03  1.38593167e-01  4.47953381e-02 -4.33502011e-02
   1.24952365e-02 -6.53268676e-03  4.54638191e-02 -1.23531528e-01
  -1.41263502e-02 -1.09060496e-01 -6.53834119e-02 -5.17783836e-02
  -6.65782914e-02 -2.30716430e-02 -4.38681692e-02  1.66603476e-02
   2.86738444e-02  3.34479101e-02  1.28829181e-02 -4.11797985e-02
  -7.13758841e-02  2.80292588e-03  1.93822905e-02 -2.57739052e-02
  -6.25375509e-02 -6.93947598e-02  2.40847897e-02 -1.51311100e-01
   2.18219981e-02 -4.25896905e-02 -6.81777373e-02 -1.23069193e-02
  -6.29816130e-02  3.00235674e-02 -1.89693104e-02 -3.25366333e-02
  -5.05927578e-02 -2.33313311e-02  1.67678725e-02  4.07389272e-03
   1.42638581e-02 -1.82623882e-02 -8.37605074e-02  3.22038867e-02
  -5.28238676e-02  1.34536973e-03  3.18174623e-02 -1.48514053e-02
  -2.51562279e-02  6.43846840e-02  3.56841311e-02  2.55979656e-04
  -7.74670616e-02  5.68891456e-03 -4.77988608e-02 -9.66394320e-03
   7.18197902e-04  2.06034053e-02  4.70319018e-02  2.30035465e-02
   2.31441334e-02 -4.23578136e-02  1.85519196e-02 -6.72224388e-02
  -3.98172624e-02  5.91671765e-02 -3.15514915e-02 -1.21702425e-01
   1.24673232e-01 -1.47937788e-02 -7.06243291e-02  1.40306642e-02
   1.14331429e-03  8.19877982e-02 -3.77492420e-02  5.19499406e-02
   4.91896160e-02  3.85662653e-02 -6.59595579e-02  4.85766567e-02
  -1.68686956e-02 -1.55818658e-02 -3.32589783e-02 -3.81371304e-02
   7.71253370e-03 -1.67060226e-01 -3.47934440e-02  1.94515567e-02
  -5.88056967e-02 -8.58888254e-02 -6.45588711e-03 -1.63426772e-02
  -2.56800838e-02 -1.13723287e-02 -7.06373006e-02 -3.64435911e-02
   9.85591020e-03 -9.55786183e-03  5.99383302e-02 -1.56001104e-02
  -3.16863768e-02  2.14229915e-02 -1.20900581e-02  5.67670353e-03
   7.86047708e-03 -5.71413245e-03  6.19563684e-02  1.14521511e-01]
 [-6.73935637e-02  3.42716649e-02 -2.12430907e-03 -8.22166502e-02
  -9.32985023e-02  1.74636161e-03 -2.84289289e-02  2.34972015e-02
   1.40674822e-02 -3.72591354e-02 -5.00067212e-02 -5.20096496e-02
  -6.52827322e-03 -7.88232908e-02  7.65434802e-02  4.71068472e-02
  -5.58879524e-02  6.85611591e-02 -5.47003783e-02  2.68052798e-02
  -2.73231547e-02  7.07378611e-02 -2.45447122e-02 -2.93351454e-03
   1.75558161e-02  2.77792662e-02 -4.62188348e-02 -2.61587426e-02
   2.19549565e-03 -1.82713091e-01  3.80598791e-02 -6.13508970e-02
   5.04295789e-02 -8.56260210e-02 -6.33037239e-02 -5.81181943e-02
   8.49094428e-03 -9.19992477e-02 -3.17552350e-02  5.02824858e-02
   4.65725027e-02  1.39973657e-02 -4.90265563e-02  6.90576807e-03
  -6.07611537e-02 -4.03338298e-02 -7.41423527e-03  2.57587209e-02
  -4.29160036e-02  5.97646367e-03 -1.76335108e-02 -6.97548091e-02
  -5.26660755e-02 -5.84004857e-02  2.11082585e-02 -7.76147179e-04
  -4.86738458e-02 -2.21078955e-02 -6.54626638e-02 -9.92573574e-02
   3.87451723e-02  5.22885509e-02 -1.28413618e-01 -1.96369383e-02
   3.32261957e-02 -1.96849573e-02 -2.33112182e-02 -6.63227513e-02
  -1.75999235e-02  3.88283618e-02 -1.29525913e-02 -5.80709204e-02
  -3.87134179e-02 -4.92098816e-02  1.22118909e-02  7.47944191e-02
  -2.60543972e-02  2.68279236e-05 -4.78693508e-02  1.93479098e-02
  -2.00069584e-02 -1.58536360e-01 -1.64084285e-02  3.11184712e-02
  -4.23656031e-02 -4.04004417e-02  4.23713736e-02 -8.73622224e-02
  -3.56998891e-02  4.54414822e-02 -1.24006502e-01  3.41117531e-02
   2.08750203e-01  5.78532554e-02 -1.40056953e-01 -4.98613976e-02
  -3.28667052e-02 -5.28953895e-02 -8.07711035e-02 -5.46744987e-02
  -2.99298819e-02  1.03725577e-02  6.06692880e-02 -2.12193318e-02
   5.20731846e-04 -7.98030496e-02 -2.71453056e-02  8.59820843e-02
   1.42912909e-01 -1.40516773e-01 -1.12751564e-02 -2.63039142e-01
   2.82224864e-02 -4.94080372e-02 -4.37716134e-02  4.29251790e-02
  -6.45550340e-02 -7.73031218e-03  1.46219861e-02 -6.36022016e-02
  -1.74983442e-02  1.86303910e-02 -1.24199949e-01 -3.59992236e-02
   5.44568077e-02 -6.24540523e-02 -9.56936702e-02 -7.57471994e-02]
 [-9.96128917e-02 -1.78280324e-02 -2.24626213e-02 -2.09473893e-02
  -5.04913703e-02  1.03019625e-02  2.74611637e-02 -6.77327365e-02
  -5.59360906e-02  6.67078272e-02 -6.64367080e-02 -2.22368538e-02
   3.16771939e-02  2.54290942e-02 -1.24576852e-01 -1.07543334e-01
  -7.16367438e-02  4.64973003e-02 -5.74784726e-03  2.46724691e-02
  -2.67805289e-02  1.50062200e-02  4.14908165e-03 -3.07512991e-02
  -3.92353535e-02  4.36719283e-02 -2.31027249e-02 -5.30311503e-02
  -4.18784039e-04  9.44787078e-03 -1.09805930e-02  5.50325122e-03
  -6.37632096e-03 -3.98861207e-02 -4.48551401e-02  1.24471802e-02
   1.09292176e-02 -7.04099610e-02 -8.37381557e-02  2.74477545e-02
  -6.88194251e-03 -3.19660977e-02 -1.75981056e-02 -4.47483920e-02
   1.93814700e-03 -1.52366370e-01  1.58958361e-02  1.28339589e-01
   5.14020026e-02 -3.43615375e-03  1.96646731e-02  1.01995247e-03
  -5.62874191e-02  1.12364925e-01 -5.27773052e-03  1.52757959e-02
  -3.49124484e-02  4.11705999e-03 -3.32631692e-02  4.16664854e-02
   2.08139885e-02  8.86339620e-02  5.39514236e-03  2.04617660e-02
  -8.95421719e-04  4.61761579e-02  7.96366334e-02 -2.48432327e-02
  -7.18399063e-02 -1.73756517e-02  2.94143427e-03  3.68737131e-02
   5.85128516e-02  3.76699679e-02  2.34879646e-03 -3.38926986e-02
  -3.06337252e-02  2.90357303e-02  5.94881251e-02  4.78096679e-02
  -6.69140462e-03  3.80680524e-02  5.18856049e-02  4.37342608e-03
   7.05529330e-03 -1.53038651e-02 -2.10209507e-02 -6.82287216e-02
   2.21881699e-02 -2.53035873e-02 -2.52862096e-01  3.76305915e-02
   1.57136306e-01 -1.29478856e-03  1.32011563e-01  4.21959907e-02
   3.74371931e-02  2.86968239e-02 -6.66622669e-02  2.49262638e-02
  -7.36245140e-02 -3.97798270e-02 -2.18042042e-02  1.38872992e-02
  -5.75766377e-02 -2.94238418e-01 -6.82643354e-02 -5.21196611e-02
   4.61555980e-02  6.45435601e-02  4.53356542e-02  5.79645820e-02
  -9.85974353e-03 -6.66660666e-02 -5.44020012e-02  3.56396846e-02
   1.66960619e-02 -3.13487649e-02 -5.14574125e-02  7.38932788e-02
  -5.08250333e-02  7.41278529e-02  8.73079821e-02 -1.32791460e-01
  -3.09146196e-02 -3.80662642e-02 -7.40136653e-02 -1.03376985e-01]
 [ 3.89585197e-02 -5.97555600e-02 -6.49797991e-02 -1.85143352e-02
  -5.10731339e-02 -2.76424196e-02 -2.27498822e-02 -4.51373234e-02
  -4.27417606e-02  2.77369544e-02 -9.49104205e-02 -1.62113388e-03
  -2.63280876e-04 -1.71568338e-02  2.63186824e-02 -9.98950284e-03
  -6.32658005e-02 -4.48905453e-02 -8.15369412e-02 -1.98958762e-04
  -1.33097693e-02  1.83558669e-02 -3.85844037e-02 -6.91194981e-02
  -1.43784070e-02  1.10778965e-01 -3.78905572e-02 -9.79224816e-02
  -2.69858520e-02 -1.31659403e-01  5.53261824e-02 -4.12521176e-02
   2.26118322e-02  5.95952012e-03 -5.37196063e-02 -1.86217800e-02
   4.96310256e-02 -9.15278271e-02 -5.76741174e-02  1.06557690e-01
   1.44578866e-03 -5.85481077e-02 -9.23476145e-02 -8.83689895e-03
  -1.12440931e-02 -5.18169366e-02  8.08441546e-03  8.06600787e-03
   5.30957468e-02  9.26798582e-03 -5.75728118e-02  1.63158588e-02
   3.68424167e-04 -1.25597805e-01 -2.05405131e-02 -1.05592377e-01
  -1.63925458e-02 -4.77598645e-02 -2.44960301e-02 -1.70722961e-01
   4.08153124e-02 -1.27735123e-01 -1.37109533e-01  3.70295048e-02
   4.19176649e-03  4.74788100e-02 -8.33033994e-02  3.76467519e-02
   1.09876558e-01 -6.86568618e-02  1.10978540e-02  3.80930770e-03
   1.00670252e-02 -1.28629282e-01 -1.40291043e-02 -1.14063760e-02
   5.29385209e-02  2.78395750e-02 -6.13944344e-02 -5.79975173e-02
  -7.82079101e-02 -1.11700624e-01 -2.52739899e-02 -4.70109237e-03
  -2.05681082e-02 -1.64165497e-01  4.17934236e-04 -6.99669570e-02
  -2.15283670e-02 -3.75733078e-02 -5.30645549e-02 -4.14976478e-02
  -1.79657876e-01  2.54039496e-01  6.93125725e-02 -5.37444605e-03
   1.56949073e-01  4.83720005e-03 -1.46666588e-03 -5.12029566e-02
   2.52441950e-02 -8.45680758e-03  3.48855071e-02  1.14403432e-02
  -6.06259033e-02 -3.04651141e-01 -3.07719111e-02 -4.74089943e-02
  -1.88618720e-01 -7.07751513e-02 -3.24213207e-02 -5.72418347e-02
   2.35499777e-02  3.64724025e-02  1.51495598e-02 -3.69723439e-02
   1.96663924e-02  5.08278497e-02  1.60987616e-01 -8.00442994e-02
  -1.21814823e-02 -7.89237991e-02 -8.41618627e-02 -1.31116986e-01
  -1.78244598e-02 -7.11461306e-02 -4.05454598e-02 -7.54830465e-02]
 [-2.47056782e-01 -3.84610817e-02 -3.91253158e-02 -2.78481729e-02
  -3.49122845e-02  1.13994665e-02 -3.45510170e-02 -6.06765151e-02
  -1.41687123e-02 -2.74708383e-02 -2.40707789e-02  8.48094374e-03
  -7.45008960e-02 -2.02251542e-02  5.93168661e-02  2.71208528e-02
  -1.57838296e-02  4.96724285e-02  6.06475770e-02  7.78597370e-02
  -3.91744226e-02 -5.03566675e-02 -7.37810209e-02  4.74738479e-02
   5.19269161e-05  3.95848751e-02  1.26616214e-04  1.09812096e-01
  -1.62392631e-02 -4.10574526e-02 -1.53828105e-02 -3.70588824e-02
  -1.22433389e-02 -4.53105289e-03 -3.30330022e-02 -1.65009114e-03
   3.65670174e-02 -8.58372152e-02  5.84308244e-02  1.85246812e-03
   8.96992311e-02 -6.94290921e-02  5.04117906e-02  2.83114817e-02
  -6.09865971e-02  3.60011905e-02  2.24271789e-02 -6.84354156e-02
   3.76067534e-02 -4.36750576e-02  1.11409230e-02  4.93385606e-02
   2.73738317e-02 -7.03335777e-02 -4.56266813e-02  3.11774798e-02
   6.28237054e-02  2.65878327e-02  5.74990101e-02  8.74874815e-02
  -6.47275224e-02 -9.16376859e-02  1.35517552e-01 -1.07811214e-02
  -8.11567679e-02  5.11347875e-02  4.19985242e-02  1.19885569e-02
  -1.47701763e-02  2.08055619e-02 -6.85275123e-02  1.44845787e-02
  -1.53835127e-02 -6.21181801e-02  2.72948630e-02  2.93715056e-02
   3.58836800e-02  9.15772282e-03 -4.62593548e-02 -2.57566385e-02
   3.14510502e-02 -3.59984040e-02  9.48129222e-03  1.21321669e-02
   3.33756395e-02  1.08068034e-01 -6.58766702e-02 -4.80575599e-02
   2.96187885e-02 -3.39820720e-02  7.32582528e-03 -2.52361875e-02
   6.55194446e-02 -2.10934803e-01  4.22176011e-02 -6.46990165e-02
  -1.09170675e-01 -3.63689475e-02 -3.59020904e-02  8.63566180e-04
   6.74182624e-02 -5.09332865e-02 -8.60540792e-02  4.76913061e-03
  -5.16735949e-02 -3.09247300e-02 -4.83391546e-02 -5.26124649e-02
  -9.25272703e-02  3.35875154e-02 -5.12990579e-02 -1.48303593e-02
  -1.25747761e-02  4.09163907e-02  1.82309113e-02 -3.24044675e-02
   4.06831643e-03  2.26827664e-03 -1.71887964e-01 -2.60696337e-02
  -2.39643827e-02 -8.08663741e-02  7.74961635e-02  1.95325837e-01
  -7.70741254e-02  4.79866331e-03  3.98408063e-02 -1.24751084e-01]
 [-8.16661865e-02  9.86055750e-03 -3.47305760e-02 -5.78940613e-03
  -6.98049963e-02  5.17190136e-02  1.90242752e-02  7.98209663e-03
  -6.67469054e-02 -9.21919122e-02  1.77027974e-02 -1.81584224e-01
   8.34072381e-03 -6.76946342e-02  2.23553786e-03 -3.66969295e-02
   4.61095013e-02 -4.04146053e-02 -7.17061907e-02  4.14613225e-02
   2.96358503e-02 -2.13788360e-01 -2.95698904e-02 -1.36781901e-01
  -3.06522381e-02  4.53021303e-02 -3.33001511e-03 -3.21420655e-03
  -1.98987246e-01  4.13822308e-02 -5.02419211e-02 -4.61511277e-02
  -1.12403790e-02  2.31048800e-02 -3.93258408e-02 -1.15687083e-02
  -6.52788281e-02 -2.12921333e-02  2.60808375e-02  2.69669853e-02
   1.09743319e-01 -6.48114085e-02  2.19521709e-02 -4.63833101e-02
   4.75880653e-02  3.04678231e-02  6.80650771e-02  5.47343940e-02
  -4.55611385e-02  2.61166040e-02  4.02607024e-02  2.32468732e-02
  -3.73186469e-02 -2.04615444e-01  2.79330015e-02 -1.97968744e-02
  -7.30767176e-02  2.50080731e-02 -2.53235735e-02  8.41764808e-02
   1.09938383e-02 -6.63311332e-02  1.45014627e-02  1.86674725e-02
  -2.63110697e-02 -9.56012979e-02  1.33522257e-01 -4.84488085e-02
   9.06996652e-02 -7.75831342e-02  2.15848722e-02  2.85721570e-03
   6.05697520e-02  1.03558101e-01 -6.64175767e-03  1.01858331e-02
   1.95449367e-02 -1.23781301e-02 -1.35381864e-02 -6.03650734e-02
  -9.95974839e-02 -4.42249626e-02 -1.45823255e-01 -6.37331605e-02
  -7.13561755e-03 -1.96549529e-03 -3.05866897e-02 -2.18209419e-02
  -1.95693612e-01  1.20178415e-02  3.77912931e-02  5.01696430e-02
   1.93538405e-02  7.47551024e-02  6.49309680e-02 -5.98566979e-02
  -4.53991666e-02 -1.99277639e-01  1.30606340e-02 -3.77432518e-02
   9.31318104e-02  3.69591266e-02 -4.64296229e-02  1.25722389e-03
  -4.90954593e-02  6.78944401e-03 -5.78397661e-02  2.28160899e-02
   2.09793597e-01  3.90042476e-02 -4.83036675e-02  6.53069690e-02
  -1.75729359e-03 -1.07300095e-02 -3.10357250e-02 -5.61014339e-02
  -3.13127860e-02  3.53310928e-02  9.57195088e-02 -3.36455777e-02
   3.66518907e-02  6.36884868e-02  4.86298129e-02 -1.52187169e-01
  -3.05855367e-02  4.37146798e-02 -4.80007865e-02 -1.54581383e-01]
 [-1.11924922e-02 -3.63749862e-02  3.55467014e-02 -4.71461453e-02
   1.01267539e-01  4.85021360e-02 -2.79184561e-02  4.24224287e-02
  -1.47164948e-02 -8.34558085e-02 -4.94350418e-02  8.30911696e-02
  -2.31203865e-02 -5.11563011e-02 -3.54911946e-02  1.10094938e-02
  -2.88778450e-02 -1.44425882e-02  1.86422784e-02 -1.80467758e-02
   1.20737813e-02  5.84173091e-02  2.13332754e-02 -8.24062899e-02
  -4.29544598e-02  5.62699363e-02 -6.03888324e-03 -5.14755910e-03
   6.02109842e-02 -9.38933119e-02  2.57622432e-02 -5.07113785e-02
  -1.19514419e-02  5.08143716e-02  4.29523960e-02 -5.70239946e-02
   3.79457884e-02  1.04918301e-01 -7.54046664e-02 -1.67117212e-02
  -1.15026340e-01  4.73956913e-02  4.92445342e-02 -1.72260236e-02
   5.53267263e-02 -4.96132709e-02 -5.22898585e-02 -6.00597337e-02
   1.23099014e-02  6.29266631e-03  3.20921950e-02 -7.26626813e-02
   1.45727573e-02  5.19054979e-02 -4.20788676e-03 -9.94147658e-02
  -4.43878248e-02  3.24324816e-02 -1.44145051e-02 -1.93053447e-02
  -1.06939124e-02  5.49816620e-03 -6.14666939e-02  3.58145684e-02
  -8.95999148e-02  1.99850947e-02  5.07421345e-02  1.52605847e-02
   1.28819672e-02 -4.04075123e-02 -1.87841617e-02 -2.35801917e-02
  -2.79575754e-02 -8.03457499e-02  2.55656592e-03 -9.71332192e-02
   1.49871102e-02 -5.13558462e-02  8.91465172e-02 -5.69885857e-02
  -5.08164503e-02  3.33978585e-03  8.80709197e-03 -1.05574336e-02
  -9.82668772e-02 -3.09038791e-03  1.71709992e-02  6.77965628e-03
   4.77748066e-02  4.58691083e-02 -1.99540202e-02  5.15454151e-02
  -1.69037133e-02  1.19090289e-01 -3.24514285e-02 -5.28499372e-02
   5.45065627e-02  5.54575324e-02 -4.00306620e-02  2.72000898e-02
  -8.04999992e-02 -5.31562790e-02 -8.86012334e-03  6.16181456e-03
  -1.22305900e-02 -1.52372345e-01 -3.95822525e-02 -5.51841445e-02
  -6.71332851e-02 -6.52477890e-02  2.76579522e-02 -9.27509367e-02
   1.43025769e-02  3.19616683e-02  3.88662666e-02 -5.17337990e-04
  -9.77443159e-02  3.37100662e-02  3.35604474e-02  3.06450315e-02
  -6.22937828e-02  5.74172623e-02 -6.56048506e-02 -2.53512356e-02
  -6.05802052e-02 -2.31826957e-02  1.45047670e-02 -5.56084327e-04]
 [-7.65090734e-02  8.34933445e-02  7.80547096e-04 -6.17543608e-03
  -1.47105092e-02 -4.40193433e-03 -5.04240487e-03 -1.54606374e-02
  -6.41652644e-02 -1.08633973e-01  8.26059468e-03 -5.21722250e-02
   4.97019216e-02  2.40818076e-02 -4.16213758e-02  2.43445728e-02
  -4.63807918e-02  5.13931327e-02 -4.88796234e-02  3.28306071e-02
   4.61424440e-02 -1.42860329e-02  4.64662462e-02  2.60472558e-02
  -4.86344397e-02  3.79248522e-02  6.70470437e-03  9.96707678e-02
  -1.84955876e-02 -1.08309999e-01  2.36293953e-02  9.55145806e-03
   4.78686988e-02  4.60851826e-02 -4.60169576e-02 -7.17547089e-02
  -3.56359035e-03 -1.07267447e-01 -1.65565237e-02  5.24292029e-02
  -1.02275219e-02 -9.53750033e-03 -1.02632176e-02  2.01142468e-02
  -3.06378193e-02  5.43403579e-03  1.97027363e-02 -1.88261587e-02
   3.33144814e-02  4.04789746e-02 -4.11140695e-02 -8.04129839e-02
  -6.04272308e-03 -3.87533419e-02  1.56935230e-02 -6.65948242e-02
  -3.80872600e-02 -4.68451567e-02 -7.53393322e-02 -1.26582265e-01
  -2.79934369e-02  1.27702519e-01 -1.43761680e-01 -3.39473076e-02
   3.33923064e-02  1.38157029e-02 -5.16629145e-02 -4.72834744e-02
  -1.01939023e-01 -3.24812122e-02  1.78230368e-02 -1.15682343e-02
  -3.53745297e-02 -4.94503342e-02  3.49669755e-02  4.64355014e-02
   2.31782850e-02  3.79970744e-02 -1.08622387e-01 -2.86481045e-02
   2.15576589e-03 -7.96100199e-02  6.55574054e-02  1.51072852e-02
  -8.32878500e-02 -8.69116262e-02  5.70645696e-03 -9.92327332e-02
   1.71606317e-02 -6.75983205e-02 -1.22134872e-02  4.59368527e-02
   1.17757827e-01 -1.11276200e-02  1.35800680e-02 -7.03772530e-02
   1.07479645e-02 -1.09350402e-02  2.61446671e-03  2.64857784e-02
  -2.10174304e-02  3.23439986e-02 -1.97815113e-02 -1.24198478e-02
  -6.25743493e-02 -1.00203138e-02 -1.32976715e-02  1.42645285e-01
   2.28455499e-01 -4.29104157e-02 -6.18954934e-02 -2.61573404e-01
  -4.17396650e-02  3.71979587e-02 -3.25705931e-02 -8.25344864e-03
  -4.00865301e-02 -2.25206241e-02 -9.08149853e-02  4.24189726e-04
  -9.46115889e-03  6.25180900e-02 -1.01138717e-02  1.15909286e-01
  -1.01206880e-02  5.95976114e-02 -9.00085643e-02 -7.17083365e-02]
 [ 8.39828141e-03 -2.65303608e-02 -9.58175212e-03  3.31225879e-02
  -1.15748867e-01 -3.58743779e-02  3.51076275e-02  4.40692678e-02
  -5.83131611e-02  2.07987249e-01 -1.06392749e-01 -3.21702994e-02
   4.29712869e-02 -2.10734513e-02 -4.17949073e-02 -3.20929140e-02
  -2.72215158e-02  2.30461434e-02  3.81947793e-02  2.52649542e-02
  -1.71344168e-02  1.17070474e-01 -2.69648954e-02 -5.78906648e-02
  -2.10884493e-02  9.73375961e-02 -6.05121329e-02 -3.39324921e-02
   5.67701682e-02 -1.99593734e-02 -6.09226711e-02  1.46964742e-02
  -6.12219535e-02 -7.95522109e-02 -2.34540980e-02  1.65559128e-02
  -2.16258527e-03 -6.19461499e-02 -4.09348346e-02  4.55837920e-02
   9.29063633e-02 -4.88266870e-02  2.97257621e-02  3.35575268e-02
  -6.98033348e-02 -1.24596454e-01 -6.90732943e-03  5.77506144e-03
   1.34299127e-02  8.79114401e-03 -5.42644598e-02 -3.95709686e-02
  -5.62552251e-02  7.30615854e-02 -3.90340053e-02 -5.09085283e-02
   4.76372056e-03  3.82351317e-02  7.21192881e-02  1.58090681e-01
  -2.09402075e-04  5.02519757e-02 -1.93324499e-02 -2.80797798e-02
  -8.72334093e-02  1.62870027e-02  3.68119054e-03 -3.10857352e-02
   2.17874572e-02 -3.01022679e-02 -2.40220763e-02 -4.27830517e-02
  -6.05522506e-02 -3.24130654e-02 -2.60839555e-02 -6.68873861e-02
   1.73042826e-02 -1.59031469e-02 -1.58843491e-02 -6.31930381e-02
  -3.45559120e-02  5.78873185e-03  2.05607135e-02  4.33541834e-02
  -4.85651307e-02  5.39268069e-02 -6.83451965e-02  2.42215768e-02
  -7.17841368e-03  3.18285031e-03 -2.09331349e-03  2.29454339e-02
   1.55366212e-01 -1.65162981e-02  6.65582344e-02  9.32255313e-02
   6.74853027e-02 -8.52647424e-03  2.26113629e-02 -9.66964290e-04
  -3.00239492e-02  4.37072553e-02 -5.24383113e-02 -2.59409938e-02
   2.17373893e-02 -7.04826638e-02 -7.55677372e-02  1.04520842e-01
  -6.69983402e-02 -5.27404211e-02  2.51765307e-02 -5.61262779e-02
  -5.23404218e-02 -1.77460387e-02 -5.93095794e-02  1.93528198e-02
   3.91214387e-03 -5.62233329e-02 -1.33668900e-01 -4.43741977e-02
  -5.10611720e-02  1.26035795e-01  1.07751131e-01 -6.64016828e-02
   6.53691264e-03  2.34488882e-02 -5.50873578e-02  1.06633954e-01]
 [-7.39077628e-02 -4.63748388e-02  2.90455688e-02 -4.55193594e-02
  -1.57828033e-01 -6.01008050e-02  3.15341987e-02  4.19978946e-02
  -6.49050698e-02  2.49114651e-02 -6.59119114e-02  3.80909294e-02
   1.39086861e-02  1.28824459e-02 -2.90014558e-02  3.65021569e-03
   5.07223792e-02 -3.79095897e-02 -1.88186094e-02 -1.45423776e-02
   2.38845591e-02 -9.90061313e-02 -4.13952395e-02 -3.86943370e-02
  -3.68954092e-02  1.25539273e-01  1.01343244e-02 -2.92265862e-02
  -9.81194898e-02 -1.07276082e-01  1.01719974e-02 -3.56415138e-02
   3.90296243e-02  8.03256989e-04  5.24842665e-02 -1.50354430e-02
  -4.21837494e-02 -1.18601706e-03 -1.01755243e-02  2.88429353e-02
   9.05251503e-02 -4.29122383e-03  2.13918984e-02  4.47514141e-03
  -2.13278905e-02 -1.78878009e-02 -1.07198749e-02  9.45261270e-02
   4.67817336e-02  5.77025525e-02  2.75424588e-03  3.30162309e-02
  -5.72649576e-02 -1.77645639e-01  4.98314723e-02  6.22170009e-02
  -4.56147268e-02  2.63859946e-02  8.48825723e-02 -7.21899271e-02
  -4.18522768e-03 -1.76799804e-01  4.17495631e-02 -2.40095910e-02
  -2.59571802e-02 -1.85796171e-02 -3.20901200e-02  2.80688261e-03
   1.52194411e-01 -1.07832074e-01  2.27494780e-02 -2.18463391e-02
   3.27289104e-02 -7.79502392e-02  4.43011858e-02 -2.51984447e-02
   2.74584834e-02 -3.30191478e-02 -7.32701644e-02  3.22842933e-02
   2.13338271e-01 -8.35510716e-02 -1.13005325e-01 -2.18786243e-02
  -3.13756280e-02 -2.07657188e-01  1.26133254e-03 -4.57337797e-02
   5.69873629e-03 -4.18401472e-02  5.71901686e-02 -2.14000568e-02
  -5.52253090e-02  1.51563257e-01 -4.63130586e-02 -1.79856226e-01
   9.54537615e-02 -4.49100174e-02 -6.91215396e-02 -1.85848344e-02
  -4.20104079e-02 -5.25243878e-02  4.05015685e-02 -4.64530475e-02
  -5.47790453e-02 -2.86442757e-01  5.08374125e-02 -5.89808598e-02
  -8.34534392e-02  4.45158556e-02 -7.94906393e-02 -8.40006992e-02
   2.06531715e-02 -3.32663730e-02 -1.39820585e-02  4.33639176e-02
  -1.99671853e-02 -2.94987187e-02  1.00603692e-01 -3.06230877e-02
  -2.21186168e-02 -1.03888661e-01 -6.44352287e-02  9.18873399e-03
   2.79864557e-02 -4.17253822e-02  5.16969245e-03 -2.56765913e-02]
 [-2.78216630e-01 -1.10599790e-02  2.36461163e-02 -6.36425614e-02
   9.45632625e-03 -1.12778908e-02  6.22350760e-02 -1.67097375e-02
   5.07847313e-03  5.07823825e-02 -3.05044856e-02 -3.71343791e-02
  -6.29463643e-02  1.95460152e-02 -2.24739369e-02  9.88137797e-02
   4.37696837e-02  2.98413262e-02 -9.49793011e-02  2.75276043e-02
  -5.25413081e-02  8.08896422e-02 -5.25636747e-02  2.72992030e-02
   1.21340668e-02  3.75951976e-02  4.16512787e-02 -1.74114406e-02
   8.61593708e-03 -8.90154485e-03  3.74637125e-03 -2.13436782e-02
  -2.33069025e-02 -4.13106605e-02 -1.02528401e-01 -6.58059716e-02
  -5.47967174e-05 -7.25931153e-02  3.92926065e-03  1.90950856e-02
  -6.36958182e-02 -3.19167823e-02  7.83397630e-02 -7.95964971e-02
  -6.80453107e-02 -1.22875638e-01  3.65987886e-03 -4.64109778e-02
   2.40840372e-02 -4.25467193e-02 -4.38879877e-02  7.18379915e-02
   2.57731788e-02 -1.40038773e-01 -3.36923338e-02  3.01992968e-02
   5.83163388e-02  4.57004122e-02 -3.74519313e-03  7.47782513e-02
   3.25653725e-03 -1.40650630e-01  6.95102289e-02 -1.48546714e-02
  -4.63154428e-02  6.51019812e-02  1.31507516e-01  2.57752230e-03
   1.90531854e-02 -6.33789226e-03 -7.35187680e-02 -1.13028176e-02
  -9.00311023e-02  4.81129773e-02 -2.62603890e-02 -1.49417073e-02
  -6.12908378e-02  1.25271082e-03 -9.26004946e-02 -4.89872582e-02
   7.29410797e-02 -5.18297106e-02  4.85792086e-02  2.84307804e-02
  -4.14997712e-02  7.95605406e-02 -7.28975981e-02 -6.67989925e-02
  -3.82478423e-02 -1.80602930e-02 -1.39852181e-01 -4.72879373e-02
  -9.60370805e-03 -5.95058613e-02 -3.31370644e-02 -3.09096407e-02
  -1.32951960e-01 -2.23209187e-01 -7.31820315e-02 -4.61316705e-02
  -2.29834300e-02 -9.42074880e-03 -9.05976295e-02 -5.29591553e-02
   5.28810732e-02  1.88021956e-03 -6.49067089e-02 -1.51663259e-01
   3.18141058e-02  6.90384656e-02  4.57533114e-02  1.28801331e-01
   1.15200821e-02  3.11908349e-02 -3.75653878e-02 -4.35436703e-03
  -4.59199119e-03  9.11696255e-02 -4.13255207e-02  1.21576143e-02
  -1.79040432e-02 -9.36771780e-02  5.82640851e-03 -4.10629176e-02
  -5.78715429e-02 -2.09037419e-02 -6.10572323e-02 -1.06217213e-01]
 [-8.11532140e-02 -8.60623196e-02 -5.25183789e-02 -5.32277636e-02
  -1.60822377e-01 -3.15788239e-02  1.04457214e-01 -5.55718280e-02
   4.96668071e-02 -2.12404132e-02 -4.77790553e-03 -5.75142493e-03
   1.21445488e-02 -5.98475784e-02  5.23391627e-02 -6.31190091e-03
  -4.48181406e-02  5.12853265e-02  1.35887424e-02  5.03056571e-02
   1.89708080e-02 -1.22637130e-01 -1.85637902e-02 -2.49464866e-02
  -4.79410812e-02 -1.05837826e-02  2.26903129e-02  7.30505437e-02
  -1.30620420e-01  7.80561417e-02  6.81532472e-02  5.71113303e-02
  -3.77853285e-03 -6.81676343e-03 -4.92119044e-02 -6.96300110e-03
  -3.22844274e-02 -6.40494153e-02 -1.01172738e-02  1.04654313e-03
   3.11142877e-02 -9.57245659e-03 -3.47940922e-02  4.85206954e-02
   3.99823897e-02 -1.28593296e-01  6.03252742e-03  1.01914972e-01
  -2.52415556e-02  9.98120848e-03  1.27477525e-02  9.03422385e-02
  -3.07963416e-02 -7.05460906e-02 -3.86400186e-02  8.03497732e-02
   5.02766995e-03 -3.64786386e-02 -7.68822879e-02 -7.51891285e-02
   3.69004942e-02  1.60984658e-02 -1.07406013e-01 -3.56058255e-02
  -5.55209704e-02  6.09678170e-03  3.65057141e-02 -8.49588215e-02
   3.65093499e-02 -5.83617017e-02 -3.16508748e-02 -5.90694174e-02
  -6.71165660e-02  9.32587162e-02 -1.06843757e-02 -3.52666751e-02
  -2.72174776e-02 -4.62229997e-02 -4.57851291e-02  2.26146095e-02
   4.64011263e-03  3.66868004e-02 -1.11681461e-01 -8.05652793e-03
  -4.83320281e-02 -4.38394435e-02  3.77714895e-02  2.83746328e-02
  -1.88807338e-01 -6.09105937e-02  1.41390823e-02  3.95514704e-02
  -1.02488756e-01  4.12679166e-02  2.98652723e-02 -1.11353919e-01
   3.47810388e-02 -1.90503925e-01  2.11165380e-02 -6.14101999e-02
   1.36948049e-01 -2.47076228e-02  6.75033107e-02 -2.90527288e-03
   4.14559729e-02  1.63936950e-02 -9.65158921e-03 -6.84414580e-02
   1.90947533e-01  6.38627857e-02  1.15161855e-02  5.06428033e-02
  -4.08960208e-02 -2.69127972e-02 -4.59701158e-02 -3.11941542e-02
  -1.42419124e-02  2.23976839e-02  3.44600379e-02  3.25808302e-02
   3.29407514e-03 -6.66568428e-02 -6.24193549e-02 -2.18623057e-01
  -2.26453245e-02 -1.37010313e-04 -9.62513033e-03 -8.74353498e-02]
 [ 8.45439732e-02  1.11203650e-02 -4.19527404e-02  3.85443345e-02
   3.56294289e-02 -1.26163727e-02 -3.18273203e-03  3.73838805e-02
   4.49412651e-02 -6.41971081e-03  2.42657941e-02  9.23810452e-02
   2.59885024e-02  3.41016985e-02  6.91704229e-02 -2.02207789e-02
  -5.78162782e-02  5.17202988e-02 -8.05051550e-02  2.60333437e-02
  -2.44230032e-02  1.04588710e-01 -6.97694123e-02 -1.07773736e-01
  -3.40184681e-02  1.13640010e-01 -6.89176545e-02  9.80343577e-03
  -7.91120285e-04 -6.27097040e-02 -3.54822055e-02 -4.80513759e-02
  -1.87107418e-02  1.23096642e-03  4.00374569e-02  1.84890896e-03
   2.19191685e-02  9.35575739e-02 -7.97385648e-02  3.37948278e-02
   5.65509871e-02 -2.86313379e-03  3.09209488e-02 -4.67527211e-02
  -2.79127248e-03  8.06840323e-03 -3.56974490e-02 -1.74064115e-02
  -3.39577384e-02 -5.61244227e-03 -5.29940985e-03 -1.82357021e-02
  -2.03810409e-02  6.67439923e-02 -7.67212585e-02 -3.43623720e-02
  -1.08638301e-01 -5.34864934e-03 -2.17080303e-02  2.58411765e-02
  -5.84453829e-02  4.72672284e-02 -1.11905731e-01 -1.14586984e-03
  -7.27844536e-02  1.18006721e-01  6.63432255e-02  2.07052492e-02
  -5.39811961e-02  1.11153610e-02 -5.08282473e-03 -3.62568907e-02
   1.21416403e-02 -2.28074193e-02  2.08173525e-02 -9.32041854e-02
   6.87339948e-03 -1.71307684e-03 -6.33558258e-02 -4.90280800e-02
  -8.04565996e-02  5.49386181e-02  4.80101742e-02  7.35382084e-03
  -5.92862032e-02  7.32055749e-04 -5.50819077e-02  4.69792495e-03
  -1.32983085e-02 -5.31647839e-02 -1.95574481e-02  2.14979742e-02
   8.83837864e-02  6.59843162e-02  2.16057748e-02 -7.25641325e-02
   7.54811149e-03 -2.12773532e-02  7.99219869e-03 -3.61446254e-02
   1.46743748e-03 -5.03259897e-02 -3.95796373e-02 -2.79357582e-02
  -3.84527259e-02 -1.43272266e-01  4.98649925e-02 -3.67428660e-02
  -3.99313308e-02 -1.65055946e-01  3.98002379e-02 -1.23560563e-01
   1.75108518e-02 -6.33407310e-02  3.25503387e-02 -4.35558446e-02
  -5.24975620e-02 -9.39323604e-02  6.59693778e-02 -6.00874089e-02
   4.40616086e-02 -3.86863463e-02  1.62019255e-03 -3.46360728e-02
   2.12244913e-02 -4.13031913e-02  4.10122424e-03  3.95222418e-02]
 [-5.65300174e-02 -4.39407341e-02 -5.20393178e-02 -6.17420347e-03
  -2.10756868e-01 -4.79438528e-03 -6.70453208e-03 -1.37553858e-02
  -4.39430587e-02 -3.42991874e-02 -7.30410069e-02 -7.40293637e-02
  -4.61936854e-02  2.24159844e-03  3.25803719e-02  2.83216685e-02
  -2.61930544e-02  4.86256592e-02 -5.53079173e-02  1.11974683e-02
   1.58039369e-02 -2.84111015e-02  3.17235738e-02 -5.20673245e-02
  -6.09452911e-02  6.15024120e-02 -2.49876026e-02 -2.76572406e-02
  -4.99708578e-02 -1.12679638e-01 -7.93618932e-02 -2.16120258e-02
  -7.93006551e-03 -1.99914500e-02  1.39732491e-02 -2.68799905e-02
  -1.15138618e-02 -1.18564084e-01 -7.65559403e-03 -1.10011008e-02
  -4.85701710e-02  8.21319148e-02 -1.07153207e-02  4.45868336e-02
   5.16440421e-02 -6.18780106e-02 -3.50842588e-02 -3.51870880e-02
   3.45021188e-02 -2.25940794e-02 -6.45301118e-02 -7.87708983e-02
   4.49951878e-03  3.72692458e-02 -2.14230176e-02 -6.90725595e-02
   5.01863193e-03 -6.07744455e-02  6.10794909e-02 -1.70828611e-01
   3.00149191e-02  2.30511367e-01 -2.43352368e-01 -8.95676576e-03
  -5.54292910e-02 -1.10987639e-02  4.69979644e-02  3.91205736e-02
   3.02241351e-02  4.90999073e-02  2.14717891e-02 -6.35069087e-02
   2.90290709e-03 -1.31479129e-01  2.00983193e-02  4.93095778e-02
   3.90226170e-02 -1.95356216e-02  2.48011500e-02 -1.87584236e-02
   1.58878621e-02 -1.09272422e-02  9.31320563e-02 -3.88010629e-02
   6.52774572e-02 -1.65531933e-01 -3.25060636e-02  5.79177216e-02
  -1.63779054e-02  4.89686709e-03 -1.30786091e-01  4.70380262e-02
   1.05119653e-01 -1.46700228e-02  3.36488448e-02 -1.39246121e-01
  -5.85233420e-02  9.09788813e-03 -2.37948112e-02  4.01079729e-02
  -3.97117734e-02 -4.12290320e-02 -6.65612444e-02 -2.84023564e-02
  -2.12645121e-02 -1.16856940e-01 -5.38238622e-02 -1.28979785e-02
   1.47041261e-01 -1.04249336e-01 -3.68568189e-02 -8.21586400e-02
   2.24854983e-02  3.23208724e-03 -2.65602767e-03 -3.33295688e-02
  -1.99747477e-02  1.74995139e-02 -7.90018514e-02 -4.36831266e-02
   2.86337491e-02  3.11828172e-03  5.59485964e-02  1.37913838e-01
   4.26362595e-03 -5.75333945e-02  4.50205849e-03 -1.28343910e-01]
 [ 6.41408190e-02 -7.11065829e-02  1.21674109e-02 -1.64737497e-02
  -1.09085061e-01 -2.61290222e-02 -1.42369163e-03  7.80547503e-03
  -4.03736979e-02  5.95556684e-02 -1.52370827e-02  4.09246162e-02
  -5.32800108e-02 -2.01012921e-02 -1.29774481e-01 -5.87084852e-02
  -5.67970835e-02 -5.08436635e-02  7.73309357e-03 -6.59411913e-03
  -7.32468069e-02  9.91244614e-02 -2.50130910e-02  3.11461277e-02
   4.96075563e-02  5.71389720e-02 -5.33246361e-02  5.43333143e-02
  -1.69766955e-02 -1.20881729e-01 -6.27238974e-02 -1.29136108e-02
  -5.95954917e-02 -2.58701984e-02  2.23451741e-02  1.16981752e-02
  -6.46397918e-02 -1.83705419e-01 -3.16210859e-03  8.68945047e-02
   5.64126708e-02  5.28083146e-02 -3.34775373e-02 -1.14872670e-02
  -2.72247512e-02 -7.18668997e-02 -2.15245318e-02  3.53845619e-02
  -4.80346056e-03  6.07169466e-03  5.11551425e-02  3.26606482e-02
   1.77120864e-02  2.50360016e-02 -3.33234780e-02 -4.52325568e-02
  -1.45674031e-02 -3.21604981e-04 -1.47589490e-01  2.02770650e-01
  -5.11848256e-02 -8.69699940e-02 -8.26362371e-02  1.12415599e-02
   3.96850146e-02  1.41099477e-02  1.45922989e-01 -2.88383625e-02
   7.13620707e-02  2.35331636e-02  2.58918796e-02 -2.33306661e-02
   4.49899249e-02 -1.87930521e-02 -5.66668063e-02  7.09800571e-02
  -7.19939545e-02 -7.50252828e-02  7.42204934e-02  1.25903701e-02
   8.07378665e-02 -1.77035518e-02  1.08082101e-01  1.11063989e-02
  -9.74233672e-02  5.67192258e-03  1.66036356e-02 -4.75425757e-02
   2.20476300e-03  3.63615481e-03  1.86537728e-02  2.18880419e-02
   3.32538486e-02  9.59617365e-03  7.90822506e-02 -8.01000819e-02
  -8.18469450e-02 -1.92117244e-01  3.37746777e-02 -2.41784714e-02
  -1.09363878e-02 -3.57932895e-02 -3.02627385e-02 -1.79725736e-02
  -4.99471053e-02 -2.14256048e-01 -2.21493412e-02 -6.61965385e-02
  -8.76002572e-03 -2.10528122e-03 -1.33302296e-02  4.77265753e-02
   4.86467332e-02 -3.71045060e-02 -1.85844917e-02 -5.01202717e-02
   3.36834155e-02 -5.89603856e-02  1.01859793e-02  2.25154497e-02
  -6.86544506e-03  5.50213382e-02  7.18118483e-03 -6.02302030e-02
  -5.79066724e-02  1.87934153e-02 -9.17032957e-02  1.55460415e-02]
 [-3.67598166e-03 -4.81984392e-02  9.93199740e-03  1.24777956e-02
  -4.50861044e-02  4.30896319e-02 -4.31900006e-03 -5.21886200e-02
   5.11335880e-02  9.13204700e-02 -3.89436595e-02  3.38381417e-02
   3.05399578e-02  7.53412209e-03  6.08336590e-02  5.51397279e-02
   3.00384648e-02  4.60232757e-02 -2.21411958e-02 -6.47234730e-03
   4.19893041e-02 -4.58083041e-02 -5.69328368e-02  3.49596292e-02
  -1.09673329e-02  9.29175224e-03 -4.08370011e-02  5.80031462e-02
   5.17260865e-04 -3.90075073e-02 -1.13613224e-02  1.10152308e-02
   8.73182155e-03  4.52742986e-02  4.92741056e-02 -3.00131608e-02
   1.43764298e-02  2.95923203e-02 -3.89477499e-02 -4.91166487e-02
  -1.22014666e-02  6.27994072e-03 -5.47306128e-02  3.68181691e-02
   5.03879264e-02 -1.81274023e-02  3.42349336e-02  3.50369774e-02
  -2.33269092e-02 -4.14345588e-04 -1.97845325e-02 -5.64437807e-02
   3.67463962e-03 -1.94323406e-01  3.49301286e-02 -3.15869530e-03
   7.49444440e-02  2.40700459e-03  3.65987197e-02 -7.80567899e-02
  -4.49331328e-02 -1.40162647e-01 -1.09106846e-01  5.77318761e-03
  -2.13038232e-02  1.86879542e-02 -7.01275319e-02 -2.27087475e-02
  -2.82495786e-02 -8.37254673e-02  1.66881289e-02  6.42681122e-03
  -5.28747141e-02 -4.07850631e-02  4.47413959e-02 -5.53797632e-02
   2.51107588e-02 -2.76430734e-02  9.58204549e-03 -3.69965509e-02
   7.62524530e-02 -3.20838690e-02 -1.56420887e-01  1.01671880e-02
   4.83428407e-03 -2.57192045e-01  1.48416590e-02 -8.68415013e-02
   2.96781827e-02 -6.18292801e-02 -3.32798325e-02 -1.74846631e-02
  -3.96411009e-02  1.61200434e-01 -6.65839985e-02 -2.30934978e-01
   1.57667816e-01  8.13295040e-03  9.12018819e-04 -3.45617272e-02
   5.56442738e-02 -6.63839877e-02 -2.29274295e-02 -6.29153922e-02
   4.09400053e-02 -3.10454518e-01  1.01055957e-01  5.25361486e-02
  -8.56291205e-02 -1.59832001e-01 -7.42516741e-02 -2.99253277e-02
   4.02948670e-02  4.27492633e-02  2.98015662e-02  3.28964554e-02
  -2.43587419e-02 -2.38609295e-02  1.89404353e-01 -1.26754697e-02
  -2.12274007e-02 -2.74023041e-02 -1.25793919e-01 -2.16471944e-02
   2.72094384e-02 -3.05597950e-02 -1.85115524e-02  1.12025365e-01]
 [-1.34146631e-01 -6.37738779e-02 -1.42833749e-02  2.01446004e-02
  -6.57261070e-03  7.75932684e-04 -3.54903787e-02  1.44173177e-02
   4.17604074e-02  2.43737623e-02 -1.83839370e-02 -3.81347351e-02
   2.01395564e-02  1.78284873e-03 -7.45722055e-02 -2.33557038e-02
  -6.27047792e-02 -1.99326519e-02 -6.76962838e-04  1.34477243e-02
   7.74884224e-03  3.17713730e-02  5.61994174e-03 -2.29954030e-02
   7.33303046e-03  8.29662904e-02  6.64484128e-02  8.95561874e-02
  -4.20037247e-02  1.01025149e-01 -9.15282145e-02 -2.91667078e-02
   1.84215959e-02  8.11943561e-02 -4.04893160e-02 -8.23338330e-02
   3.96525823e-02 -4.01843190e-02 -3.49949487e-02 -2.10390463e-02
  -3.06398459e-02 -7.40209371e-02  8.20232630e-02  2.32806243e-02
  -1.02154473e-02 -7.39237294e-02 -8.07272941e-02 -2.87306495e-02
  -4.24353927e-02  3.70144397e-02  5.71291754e-03  3.89753245e-02
  -2.29420569e-02 -1.23041622e-01 -5.47816306e-02 -9.52606574e-02
  -5.00261113e-02 -2.83808503e-02  7.08821490e-02  1.71903178e-01
  -1.59188658e-02 -1.96421705e-02  1.20265536e-01  3.48464437e-02
   2.62540691e-02  1.16709443e-02 -1.16182543e-01  1.86914206e-01
   2.02058461e-02 -1.27759511e-02  2.39856495e-03 -5.58849163e-02
  -6.28387928e-02  1.65089056e-01  3.59846801e-02 -1.06834816e-02
   2.96074525e-02  3.39689218e-02 -8.01468194e-02  4.32117693e-02
  -1.18372710e-02 -1.45512730e-01  2.56169327e-02 -4.76968698e-02
  -1.69921406e-02  9.35399067e-03 -1.55064035e-02 -5.21205366e-02
  -7.24889562e-02 -2.92964540e-02 -2.33143158e-02 -3.77360918e-02
   9.23144221e-02 -1.22879155e-01 -3.13402675e-02 -5.38494475e-02
  -1.74011648e-01 -1.22077420e-01 -7.11704493e-02 -2.86582336e-02
  -3.15768120e-04  3.78502952e-03 -8.52355585e-02 -6.35271966e-02
  -3.74735370e-02  8.75747800e-02 -5.01249731e-02  6.16715057e-03
   9.25402797e-04 -2.06017010e-02  4.84461561e-02  1.14933951e-02
  -9.29643959e-03  3.00678182e-02  4.11126539e-02 -4.16808054e-02
  -7.27984384e-02  2.98472494e-02 -1.20767608e-01  3.09753157e-02
  -8.30430910e-02 -5.71115576e-02 -1.70184821e-02 -2.53298078e-02
   2.31857486e-02  2.13299561e-02 -3.65674980e-02 -1.12779506e-01]
 [-7.71309137e-02  9.76632908e-03 -6.08152077e-02 -5.80590544e-03
  -4.79921363e-02 -3.32388692e-02  3.64197381e-02 -2.70736702e-02
   2.74986997e-02  7.00792298e-02 -9.94715244e-02 -4.02723700e-02
   2.36452417e-03 -2.51124501e-02  1.01310104e-01 -6.53735772e-02
   3.35525461e-02  3.76261696e-02  1.49880035e-03  5.68644404e-02
  -2.64055133e-02 -1.47408381e-01  4.41597104e-02 -3.99211496e-02
  -1.62246935e-02 -1.70551278e-02 -3.73869538e-02  1.64006263e-01
  -7.15919808e-02  1.20850667e-01  1.73054682e-03  2.08722223e-02
   9.41289123e-04  1.90179013e-02  7.30048046e-02 -1.66708846e-02
  -3.20528485e-02 -1.97576225e-01 -6.49631023e-02  5.51208891e-02
   5.53339645e-02  9.63923614e-03  2.74632759e-02  2.86338795e-02
  -5.43951951e-02 -4.97833565e-02  1.16979675e-02  1.43243954e-01
   5.03606461e-02  4.99543734e-02  3.84037546e-03  9.28477123e-02
   5.02127670e-02 -6.72015622e-02  4.45055142e-02 -2.88019739e-02
  -2.62066664e-04 -5.45492172e-02 -2.00576968e-02 -4.89128567e-02
  -3.17974091e-02  1.18069747e-03 -1.23452350e-01 -2.32674498e-02
  -4.85067554e-02 -6.61826730e-02 -3.19408178e-02 -3.53239626e-02
   1.19830724e-02 -7.78252184e-02 -8.99138904e-05  3.73282619e-02
   7.13764085e-03  1.03772096e-01  3.43209133e-02  2.53103152e-02
  -3.62320133e-02 -5.85758984e-02 -6.74801618e-02 -5.13768494e-02
  -2.17588563e-02  3.28687169e-02 -1.94277838e-01 -1.14876013e-02
   7.67434910e-02 -1.05514497e-01  2.72158310e-02 -2.61349026e-02
  -4.75458875e-02  2.78602131e-02 -1.81605928e-02  3.03922612e-02
   8.47010687e-02 -1.68395210e-02 -5.12073413e-02 -1.75083071e-01
   2.96174381e-02 -2.49558344e-01  1.83503963e-02  2.61192601e-02
   2.06413999e-01 -6.40771613e-02  4.20373045e-02  1.07032117e-02
  -6.13532541e-03 -5.60436621e-02 -5.41416034e-02  9.97398421e-02
   1.25832930e-01  8.01381692e-02 -6.36985004e-02 -4.38414738e-02
  -9.36822442e-04 -1.72867719e-02  4.12650630e-02  2.60017477e-02
  -6.51364252e-02  1.07004546e-01  4.68335338e-02  2.77141575e-02
  -6.19192654e-03  9.06421840e-02 -5.03812023e-02  4.36263420e-02
   1.40130250e-02  5.57152601e-03 -6.53119683e-02  5.05138515e-03]
 [ 1.76692531e-02  6.71534380e-03  3.08263823e-02  8.81681684e-03
   1.42978793e-02 -5.84805012e-02  3.89068797e-02  4.30345312e-02
  -1.43379357e-03 -5.64455381e-03 -4.42532171e-03  1.43583929e-02
   3.64043079e-02 -3.50689441e-02  3.39559205e-02 -4.87593412e-02
  -3.28277200e-02 -5.97931296e-02 -2.00866926e-02  4.35021035e-02
   3.57997161e-03  2.15809532e-02 -4.96701710e-02 -6.10419512e-02
  -6.65219501e-02  5.36303148e-02  7.58280046e-03  4.76104990e-02
  -8.59921277e-02 -3.00126001e-02 -3.63848470e-02 -3.90202515e-02
   2.18229238e-02 -1.51534043e-02  5.76729700e-02 -4.84257676e-02
  -5.46862520e-02  1.24344558e-01  2.92290300e-02 -4.20491770e-02
   7.99566954e-02  2.77813356e-02 -1.51507827e-02 -3.89223285e-02
  -4.05191034e-02  2.32589431e-02 -4.69380245e-03 -2.75372248e-02
  -5.99607006e-02 -6.46183342e-02 -1.74228922e-02 -1.58454408e-04
   3.87083851e-02  4.58061136e-02 -8.03084001e-02  4.69866134e-02
  -8.92781317e-02 -4.27758433e-02 -3.23355049e-02 -5.50912246e-02
  -6.59335703e-02  6.01233058e-02 -2.94262636e-02 -5.98775782e-02
   1.14961382e-04 -2.95318831e-02  6.27563521e-02  3.63768835e-04
  -1.52188428e-02  3.57449129e-02  3.67908664e-02  8.11188109e-03
  -3.35959941e-02  5.19997627e-03 -5.31815179e-02 -7.79647157e-02
  -3.42861637e-02  1.72857323e-03  2.68033464e-02  4.63489555e-02
  -1.13089345e-02  5.07247075e-02 -1.42763481e-01 -6.28710836e-02
  -5.63738942e-02  2.20966022e-02 -1.28659811e-02 -8.20145756e-02
  -3.97243425e-02 -8.62878468e-03  9.80764395e-04 -5.77625167e-03
   2.44255010e-02  2.58804448e-02 -2.69622281e-02 -7.42948353e-02
  -3.56944860e-04  1.83801726e-02  1.39081171e-02  1.29041849e-02
  -1.64873358e-02  9.59527399e-03 -1.48892086e-02  2.25675832e-02
   5.93511201e-02 -1.13694243e-01 -7.20468163e-03 -2.52472535e-02
  -5.23851030e-02 -1.48119628e-01  3.30847874e-02 -4.37596478e-02
   4.19836491e-02  4.19161730e-02  2.95091569e-02 -6.87612146e-02
  -7.81697221e-03 -5.44982068e-02  6.26483858e-02  6.02702759e-02
   6.56646444e-03 -4.63652946e-02 -3.86581868e-02  1.40378643e-02
   1.01172868e-02 -2.88980231e-02  2.73983181e-02  3.60396653e-02]
 [-9.52279270e-02 -7.64278648e-03 -3.65172885e-02 -7.31153190e-02
  -1.44516021e-01  5.20393401e-02 -1.47531005e-02 -1.15854973e-02
  -3.39285322e-02 -8.72619376e-02  5.01741320e-02 -3.76115441e-02
  -6.26150370e-02 -4.33102110e-03  9.63514894e-02 -2.37028282e-02
  -3.66131552e-02 -5.82183041e-02 -3.92468721e-02 -3.49816158e-02
  -4.87541333e-02 -1.10789642e-01  1.71304140e-02 -5.22643365e-02
   5.94898425e-02  2.86534410e-02  2.03682911e-02 -3.91003005e-02
  -2.75790114e-02  1.31377980e-01 -4.11110632e-02  5.21843322e-02
  -5.17230108e-02  3.51499673e-03  3.44251432e-02 -8.64995793e-02
   2.68333759e-02 -9.66965705e-02 -4.92747575e-02  6.62452802e-02
   3.04408111e-02  1.19236432e-01 -8.73852968e-02  5.09272479e-02
   4.73875515e-02  3.21592670e-03  3.43050323e-02  9.59881768e-02
  -6.05589896e-02  1.45149499e-03 -2.09161174e-02 -1.17675260e-01
  -2.79993191e-02 -6.18807506e-03  5.41929677e-02 -5.40327355e-02
  -6.57233819e-02  6.70636222e-02 -7.44114146e-02 -1.39304563e-01
   3.65759060e-02  1.14699893e-01 -7.01403990e-02 -3.86163890e-02
   4.15538251e-02 -1.28214851e-01  2.20461227e-02 -3.76578569e-02
   5.95904775e-02  1.47438850e-02 -9.68244672e-03 -3.01506445e-02
   1.53344059e-02 -6.88201934e-03 -4.55023274e-02  3.48943174e-02
   2.87220366e-02 -3.41189243e-02 -5.01484685e-02 -3.57548706e-02
  -5.78014143e-02  4.21544537e-02  1.47650177e-02  3.71073335e-02
  -2.05425508e-02 -1.01388544e-01  9.90679860e-02 -1.67196512e-03
  -1.20007405e-02  2.80454718e-02 -1.57420300e-02 -2.32678372e-02
  -2.80103907e-02  4.24210727e-03  1.18251234e-01 -2.01838817e-02
  -3.05255614e-02  3.30942310e-03 -1.26115438e-02  4.98920791e-02
   4.80487011e-02  5.45997061e-02 -5.88983931e-02 -1.04493210e-02
   4.37929593e-02 -1.08845256e-01  7.12269160e-04 -1.59774665e-02
   1.25594243e-01 -4.65552174e-02 -9.23470315e-03 -1.66610226e-01
  -3.94008011e-02  2.29141340e-02  3.72160040e-02  5.25080264e-02
   2.84236781e-02  2.00170325e-03 -2.74083000e-02 -3.62205319e-02
  -4.93851155e-02 -3.06681246e-02 -4.29762751e-02  1.23475552e-01
   3.62166725e-02 -3.42875272e-02 -3.26900929e-02 -1.07137635e-01]
 [ 6.92791492e-02 -3.29275541e-02  5.25131002e-02 -2.44547557e-02
  -2.36550979e-02 -5.39674014e-02 -4.48690616e-02 -3.38592986e-03
   1.59015544e-02  8.10541436e-02  3.96602675e-02  6.60047531e-02
   4.42560501e-02 -1.50822392e-02  1.41938832e-02 -1.01429578e-02
  -5.39812483e-02 -7.70296529e-03 -9.91534814e-02 -1.78941321e-02
   1.60867311e-02  6.18986376e-02  2.97185630e-02 -1.13190860e-01
   3.51347253e-02  2.39721611e-02  1.71499641e-03  6.25207415e-03
  -4.98010172e-03 -1.36123210e-01 -8.10804740e-02  2.65930477e-03
  -3.23288999e-02 -1.80576332e-02 -7.42916092e-02 -9.89372656e-03
   3.86764184e-02 -1.17810100e-01 -2.51507126e-02 -1.22716375e-01
   1.77922081e-02  3.26028019e-02 -2.71493942e-02  2.49385275e-02
  -6.60797209e-02 -5.14214896e-02 -1.43554490e-02  1.78135429e-02
  -3.93591598e-02 -4.98825163e-02 -6.26740744e-03 -1.28519997e-01
  -5.77066913e-02  1.21003278e-01 -4.97925766e-02 -1.71768785e-01
  -4.13324609e-02  3.25331986e-02 -6.34525865e-02  1.38444707e-01
   9.13042575e-03  3.61372121e-02 -8.44399482e-02 -3.51060107e-02
  -8.40603933e-02  6.27001971e-02  1.18530668e-01  1.07537925e-01
  -1.36167422e-01  4.55362611e-02 -4.17246260e-02 -4.69696634e-02
   5.41232191e-02  1.75165292e-02  4.53201905e-02 -2.42802710e-03
  -7.17878789e-02 -4.50838394e-02 -1.64779928e-02  4.57247533e-02
  -1.19974259e-02 -1.97775476e-02  1.79362223e-02 -8.54606181e-03
  -7.38913864e-02  9.47573408e-02 -6.19868115e-02 -2.87261046e-02
  -1.94559600e-02  3.16529758e-02 -1.38494939e-01  4.00364958e-02
   7.77537152e-02  1.40371788e-02  9.81517509e-02 -3.40076350e-02
   1.15782283e-02 -4.91502583e-02  6.37411252e-02  5.33977486e-02
  -6.80096969e-02 -4.30693515e-02 -1.12572514e-01  1.13120452e-02
   1.73914507e-02 -2.99286216e-01 -7.61528388e-02 -8.09860751e-02
  -1.15506925e-01 -1.13225773e-01 -5.48370518e-02 -9.14133899e-03
   1.89784989e-02  3.06896754e-02  3.15139443e-02  3.10066994e-02
  -7.94319957e-02  7.33533278e-02 -7.98153728e-02 -4.67139557e-02
  -6.15076125e-02  3.88694555e-02  9.22864899e-02 -9.48153716e-03
  -5.40999509e-02 -7.18632117e-02 -5.72686680e-02 -1.39199151e-02]
 [ 7.80324265e-02 -5.23608923e-02 -3.02688926e-02 -2.45797541e-03
   2.55776644e-02  2.40763947e-02  3.63873430e-02 -4.05014120e-02
  -5.89547530e-02  7.54788220e-02 -7.62767568e-02  1.06933266e-02
  -3.16273868e-02  7.88601767e-03  1.13394372e-01  1.33773861e-02
  -3.01069021e-02 -5.27679105e-04  5.20450734e-02 -4.63113934e-02
   3.92512679e-02  7.55965859e-02  2.10752077e-02  6.17040694e-03
  -4.47911285e-02 -2.32486380e-03  1.61720812e-02 -5.69273606e-02
   1.05112940e-01 -2.64177322e-02  2.03714650e-02 -2.85250954e-02
  -6.94669113e-02  5.75231574e-02 -3.83594520e-02  3.02314535e-02
  -3.19215916e-02 -5.71942367e-02 -5.87278754e-02  3.71147692e-02
  -3.89464088e-02  2.92422101e-02 -1.13110907e-01  4.04307358e-02
  -2.82001067e-02  4.75562215e-02  1.82942394e-02  4.60902601e-02
   5.40987309e-03 -6.24273643e-02  7.33121159e-03 -6.53613880e-02
  -3.60731818e-02 -1.67785525e-01  2.98252422e-02  3.36323641e-02
  -2.39874125e-02 -6.25836570e-03  1.13957403e-02  1.95195712e-02
  -6.79515395e-03 -1.88692540e-01 -1.42411545e-01 -8.74801911e-03
  -5.75715676e-02  7.81858563e-02 -8.93028174e-03 -2.05621906e-02
   4.22037989e-02 -1.59680262e-01 -3.37716900e-02  2.59437058e-02
  -2.37790551e-02  1.36831552e-02 -3.13847698e-02 -3.80323119e-02
   2.46192887e-02 -9.83867981e-03 -5.26644699e-02 -9.71456058e-03
  -5.72795980e-02 -4.72450815e-02 -1.21859573e-01 -3.69986407e-02
   2.62878519e-02 -1.56601325e-01 -1.75842699e-02 -6.56966791e-02
   2.09018327e-02  4.23592553e-02  6.71824068e-02 -5.30773774e-02
  -5.04641049e-02  1.74862087e-01 -8.27943832e-02 -1.88372552e-01
  -5.41408472e-02 -3.28184515e-02 -1.00079793e-02  1.27198659e-02
  -5.67234233e-02  2.02878341e-02  2.69335154e-02 -6.63369894e-02
  -2.76643559e-02 -1.95732936e-01 -3.96547951e-02  1.29095063e-01
  -8.25174972e-02 -7.21834674e-02 -2.05343720e-02 -1.41363248e-01
   4.48576324e-02  4.52977605e-02 -3.13866735e-02  4.24689986e-02
  -8.40983018e-02 -1.53070353e-02  2.34974828e-02 -5.69457449e-02
   4.31039277e-03  1.74069870e-03 -1.24726079e-01  7.17785582e-02
  -2.81759128e-02  3.56783792e-02 -3.92622724e-02  7.22464919e-02]
 [-2.43344009e-01 -6.25649169e-02  4.61519286e-02 -4.44402732e-02
   5.51933236e-02 -4.75164019e-02  4.45225015e-02 -1.75743010e-02
  -1.11323064e-02  1.00672804e-02 -9.50472727e-02  1.12051405e-02
  -2.65387949e-02  1.93624068e-02 -1.27231404e-01  4.89145070e-02
  -6.72279075e-02 -2.87756464e-03 -3.31913158e-02 -8.14905297e-03
   3.40452567e-02  2.93129124e-02 -4.07466143e-02  8.86297971e-02
  -2.95208325e-03  1.98917072e-02  4.76512536e-02  9.86999944e-02
   1.16403326e-02  1.44255564e-01 -5.10189906e-02 -2.26905420e-02
   5.13698608e-02  2.73844656e-02 -7.88339823e-02 -3.57566103e-02
  -5.47044761e-02 -9.87185538e-02  4.31218836e-03  1.34756416e-01
  -6.62084436e-03 -3.20992284e-02  9.72060114e-02  2.76500434e-02
   4.44805026e-02 -1.09204510e-02 -1.00560844e-01  7.59564191e-02
  -6.45646378e-02  8.57082661e-03 -1.85282808e-02  4.23820168e-02
  -5.45067377e-02 -1.60766035e-01  4.42775711e-02 -8.42140019e-02
   2.50726822e-03 -4.89825159e-02 -4.34694663e-02  3.82919125e-02
  -1.55355558e-02  7.61416033e-02  5.90824448e-02  3.41094919e-02
   2.04331577e-02  9.06125009e-02  5.03327847e-02  1.68012048e-03
   1.15159616e-01 -5.97223230e-02 -6.96894750e-02 -1.81217045e-02
   2.71748751e-02  6.39051571e-02 -4.09764536e-02  1.29097804e-01
  -3.55648994e-02  1.20030036e-02 -9.93906111e-02  2.95814150e-03
   5.49554639e-02 -8.38870481e-02  5.48578501e-02  4.80690151e-02
  -6.03679009e-02  2.24627517e-02 -4.59245369e-02 -5.95913939e-02
  -7.76873901e-02 -1.83445551e-02  8.51655379e-02 -3.20346764e-04
   2.55858153e-02  9.16160271e-03 -1.52584746e-01  3.78440060e-02
  -1.14113353e-01 -9.86386761e-02 -7.81260580e-02  4.15416434e-02
   1.54261291e-01  7.09819328e-03 -5.81391752e-02  2.92190141e-03
  -2.92663053e-02  1.64430112e-01  5.82573526e-02 -1.06351309e-01
  -3.41663472e-02  6.91523403e-02  4.40221094e-02 -5.09429425e-02
   4.56476621e-02 -1.29552893e-02  1.99683961e-02  7.68435566e-05
   4.06904407e-02  6.06150785e-03  4.63786244e-04 -1.93439629e-02
  -1.47756273e-02 -1.45433530e-01 -2.67599728e-02  1.94196440e-02
  -6.46015257e-03  2.84685865e-02 -3.03269681e-02 -1.10247619e-01]
 [-4.96047549e-03 -7.31718466e-02 -3.31920832e-02  2.84136645e-02
  -8.93829688e-02 -6.26067296e-02  1.32047301e-02 -3.30424458e-02
   2.88743097e-02  3.27581167e-02 -1.27330154e-01 -7.65738413e-02
   1.71445441e-02  2.93949060e-02 -8.89949594e-03 -3.61363441e-02
   1.71002150e-02  9.61514190e-03 -1.84566006e-02  3.09046991e-02
  -6.01804294e-02 -4.32385355e-02  3.99759151e-02 -3.28011885e-02
  -6.11496437e-03 -2.02602241e-02 -1.11034602e-01  1.52722254e-01
  -9.42976326e-02  1.10184923e-01  2.47252593e-03 -1.34840598e-02
  -5.98983839e-02  7.31044114e-02  5.53585822e-03  2.67049614e-02
  -2.27336586e-02 -8.68642703e-02  5.82449557e-03  3.41058262e-02
  -7.74075538e-02  7.43763372e-02  4.55700941e-02  1.66096687e-02
   4.99810986e-02 -2.88119130e-02 -1.71411186e-02  8.71070027e-02
   2.38909535e-02  4.34046518e-03 -2.73013450e-02  1.15268961e-01
   3.18325832e-02 -6.14080653e-02 -2.08125599e-02  1.33486375e-01
   4.89712507e-02 -4.49454598e-02 -1.13234483e-01 -3.52353491e-02
  -2.04834361e-02 -8.55662450e-02  1.14220483e-02  5.05603887e-02
  -2.16446817e-02 -7.24821463e-02  4.34579998e-02 -1.20449930e-01
   8.61050636e-02 -7.53128901e-02  3.65171991e-02 -2.41662525e-02
  -3.17149051e-02  1.35410503e-01 -4.92806174e-02  5.28554134e-02
  -6.10439945e-03 -5.76674081e-02  1.05165780e-01 -4.19775546e-02
  -2.17847060e-02 -7.36019835e-02 -5.14721386e-02  1.16733182e-02
   3.53604034e-02 -1.02250151e-01 -2.37040725e-02 -1.04641572e-01
  -8.70562941e-02  5.90440743e-02  1.38608739e-02  1.67588349e-02
   1.54630933e-03  8.18198547e-02 -2.03907296e-01 -1.35662630e-01
   1.02233104e-01 -1.06162816e-01 -6.61699101e-02  4.99103628e-02
   8.62495229e-02  3.18222381e-02  3.18130329e-02 -1.16156116e-02
  -5.91243505e-02  2.61269342e-02 -1.06117949e-02 -3.83360647e-02
   1.50059909e-01 -1.80767141e-02  2.16800328e-02 -5.19300858e-03
  -5.09557407e-03  9.46409907e-03 -1.42690521e-02  8.29156954e-03
  -1.29164504e-02  2.71744765e-02  3.73763442e-02 -5.31987250e-02
   3.01060416e-02 -1.82539579e-02 -5.42913899e-02  3.26170251e-02
  -4.82254773e-02  6.34830445e-03 -5.65105267e-02  4.59152693e-03]
 [-4.92571853e-02  2.01674756e-02  1.58018563e-02 -6.67230636e-02
   5.66132739e-02 -2.17530299e-02 -2.69045010e-02 -1.49729112e-02
   4.21154983e-02 -3.63309234e-02  3.02315224e-02 -2.36467086e-03
   2.91401874e-02 -6.42183721e-02  5.26263304e-02 -6.57756301e-03
  -1.39138373e-02  1.37171764e-02 -6.98503479e-02  5.17095253e-02
  -2.39957944e-02  3.95479538e-02  3.19264419e-02 -1.21751770e-01
   3.61838704e-03 -3.32562166e-04  7.23250117e-03  9.78271812e-02
   2.70223035e-03  9.38565284e-02 -1.52552528e-02 -4.11218777e-02
  -3.74844447e-02 -2.20661871e-02 -5.01664728e-02  4.36149687e-02
   4.06854488e-02 -1.23343505e-02 -2.98333522e-02  8.71533230e-02
   2.76088305e-02 -3.59326228e-02  3.68114561e-02 -4.19490412e-02
   4.10954095e-02  6.70019686e-02 -6.02313466e-02  7.62807652e-02
